svm_type c_svc
kernel_type rbf
gamma 1
nr_class 2
total_sv 488
rho 0.746789
label 1 -1
nr_sv 202 286
SV
2.840711828853518 1:0.83196889 2:0.53830642 3:0.39385768 4:0.62253782 5:0.48254653 6:0.40938814 7:0.41650908 8:0.41650908 9:0.41650908 10:0.65064918 11:0.40925202 12:0.5429783 13:0.4300283 14:0.35051044 15:0.68942019 16:0.59442747 17:0.55584159 18:0.27579717 19:0.3353076 20:0.45117141 21:0.23050798 22:0.22625517 23:0.30599112 24:0.52212199 25:-0.14466784 26:0.11461246 27:0.40728662 28:0.18906513 29:0.40072441 30:0.35023249 31:-0.13136864 32:0.16567029 33:0.17879424 34:0.22518392 35:0.21851757 36:0.54545615 37:0.076189532 38:0.34650158 39:0.18521391 40:-0.55036369 41:0.021803164 42:0.39870128 43:-0.46510786 44:-0.060238117 45:0.075829421 46:0.83769767 47:0.52031834 48:0.3946891 49:0.62499965 50:0.47440713 51:0.41042784 52:0.41650908 53:0.41650908 54:0.41650908 55:0.64876865 56:0.40303944 57:0.54584219 58:0.42402248 59:0.35176445 60:0.68825875 61:0.60123102 62:0.5457739 63:0.27501335 64:0.33967187 65:0.44848801 66:0.22734293 67:0.22334767 68:0.31258359 69:0.50992799 70:-0.15335542 71:0.12788049 72:0.40349293 73:0.19268805 74:0.40464087 75:0.33525501 76:-0.13981974 77:0.17793796 78:0.17608308 79:0.21959486 80:0.22585831 81:0.53837926 82:0.078114189 83:0.35120338 84:0.17966779 85:-0.56317081 86:0.056982899 87:0.40184242 88:-0.4766342 89:-0.044664499 90:0.074921033 
6.474947351656954 1:0.78372327 2:0.51457423 3:0.32991603 4:0.57921705 5:0.44961412 6:0.35671485 7:0.37656181 8:0.37656181 9:0.37656181 10:0.6167339 11:0.38199629 12:0.4909139 13:0.40278351 14:0.33461452 15:0.65619409 16:0.54170019 17:0.51723195 18:0.2225158 19:0.27672416 20:0.42102905 21:0.19638547 22:0.1980972 23:0.25991006 24:0.48294009 25:-0.19091599 26:0.084533888 27:0.41027582 28:0.14971432 29:0.34711046 30:0.30987769 31:-0.20672693 32:0.13694167 33:0.18279251 34:0.19117039 35:0.1992147 36:0.52631768 37:0.011748353 38:0.32482741 39:0.17024826 40:-0.60049266 41:0.030661512 42:0.45953521 43:-0.56109757 44:-0.075386211 45:0.13327536 46:0.7873974 47:0.50458217 48:0.32504208 49:0.58060123 50:0.44556253 51:0.35504449 52:0.37656181 53:0.37656181 54:0.37656181 55:0.61778048 56:0.37744678 57:0.4891582 58:0.40523958 59:0.33682889 60:0.65169366 61:0.54046741 62:0.51744936 63:0.23380682 64:0.27419048 65:0.42592678 66:0.20430465 67:0.19241667 68:0.26594795 69:0.49443081 70:-0.19951572 71:0.098754621 72:0.4188163 73:0.14505958 74:0.35543329 75:0.32221677 76:-0.21831207 77:0.15556177 78:0.19801058 79:0.17911174 80:0.20910872 81:0.53265709 82:0.0079138277 83:0.33440559 84:0.17479564 85:-0.61009156 86:0.056219627 87:0.47127159 88:-0.58193006 89:-0.041720049 90:0.15281255 
8 1:0.75777165 2:0.50147975 3:0.30019958 4:0.55559821 5:0.43222713 6:0.33108758 7:0.35482922 8:0.35482922 9:0.35482922 10:0.59749296 11:0.36428929 12:0.46389335 13:0.39572331 14:0.3339678 15:0.64824931 16:0.51262869 17:0.4987073 18:0.20782533 19:0.24754991 20:0.40193449 21:0.18505576 22:0.17788438 23:0.2376459 24:0.47649904 25:-0.21289993 26:0.06457445 27:0.40739883 28:0.12486513 29:0.32290622 30:0.30373227 31:-0.24196115 32:0.11694893 33:0.20209077 34:0.18486929 35:0.20032923 36:0.53853325 37:-0.017528769 38:0.30516302 39:0.16227932 40:-0.61712549 41:0.01379467 42:0.49230258 43:-0.61614752 44:-0.064393461 45:0.19382827 46:0.74416885 47:0.5338035 48:0.29491363 49:0.54851153 50:0.44777635 51:0.3283063 52:0.35482922 53:0.35482922 54:0.35482922 55:0.60037712 56:0.37596749 57:0.45541107 58:0.40906407 59:0.31068124 60:0.63649864 61:0.49664543 62:0.51958372 63:0.20120226 64:0.23688546 65:0.40888193 66:0.1807093 67:0.19061779 68:0.21538729 69:0.472904 70:-0.18993466 71:0.018560526 72:0.4105315 73:0.12486423 74:0.30561428 75:0.30727995 76:-0.24100384 77:0.086523573 78:0.23406648 79:0.20335502 80:0.16485666 81:0.51145809 82:-0.022873625 83:0.29818153 84:0.16021151 85:-0.58607969 86:-0.044083493 87:0.52158493 88:-0.60351153 89:-0.11765807 90:0.23077094 
1.363605442698857 1:0.76800669 2:0.57556955 3:0.32585824 4:0.57492903 5:0.48384648 6:0.35958457 7:0.38430001 8:0.38430001 9:0.38430001 10:0.63017088 11:0.40879387 12:0.48336582 13:0.43044716 14:0.32347287 15:0.64893759 16:0.52366172 17:0.56314213 18:0.24458143 19:0.26867131 20:0.44263887 21:0.21990272 22:0.2305678 23:0.24307148 24:0.49753451 25:-0.12042269 26:0.0048996712 27:0.41224155 28:0.1607617 29:0.33901383 30:0.33685142 31:-0.19367736 32:0.10060218 33:0.26677177 34:0.23112996 35:0.17592775 36:0.54141173 37:0.013680887 38:0.32213664 39:0.19521912 40:-0.51329356 41:-0.051694448 42:0.53711244 43:-0.55071366 44:-0.11331231 45:0.27196198 46:0.76386416 47:0.5823289 48:0.32931381 49:0.5728628 50:0.4881689 51:0.36183873 52:0.38430001 53:0.38430001 54:0.38430001 55:0.63059847 56:0.40936233 57:0.4820945 58:0.44005904 59:0.30050735 60:0.64417102 61:0.51512756 62:0.56697701 63:0.24158228 64:0.26517536 65:0.43804713 66:0.20916154 67:0.23295734 68:0.22962473 69:0.48428674 70:-0.037022024 71:-0.063601171 72:0.31836162 73:0.15851625 74:0.33123484 75:0.32923522 76:-0.18668257 77:0.078467371 78:0.26395035 79:0.24113276 80:0.14721349 81:0.51377063 82:0.015223255 83:0.30911878 84:0.17673397 85:-0.42308259 86:-0.12524753 87:0.46044392 88:-0.54067896 89:-0.1400241 90:0.25214762 
1.553709045462753 1:0.79215888 2:0.69579717 3:0.39304418 4:0.61712021 5:0.57311559 6:0.42489264 7:0.44430595 8:0.44430595 9:0.44430595 10:0.69462872 11:0.48426274 12:0.52530618 13:0.5276232 14:0.32206556 15:0.69917454 16:0.5396125 17:0.661969 18:0.32447931 19:0.31448647 20:0.50159717 21:0.26324822 22:0.3214858 23:0.25818383 24:0.52848855 25:0.096340572 26:-0.058682784 27:0.33842243 28:0.22149677 29:0.37280822 30:0.39894975 31:-0.092988826 32:0.088522917 33:0.31162445 34:0.37459009 35:0.18910239 36:0.50268399 37:0.089360671 38:0.34122685 39:0.20201236 40:-0.18148647 41:-0.34969892 42:0.24706545 43:-0.43659913 44:-0.14536311 45:0.30169072 46:0.79793885 47:0.68636118 48:0.38810289 49:0.62001749 50:0.56873345 51:0.42210497 52:0.44430595 53:0.44430595 54:0.44430595 55:0.69567999 56:0.48008603 57:0.52411358 58:0.54183221 59:0.3225146 60:0.68441492 61:0.54435552 62:0.65737978 63:0.32009707 64:0.31374877 65:0.50479001 66:0.2593764 67:0.31739133 68:0.2627074 69:0.53229487 70:0.075995573 71:-0.037836502 72:0.33543171 73:0.21979806 74:0.37704869 75:0.40071875 76:-0.091391433 77:0.09151816 78:0.3066305 79:0.35558128 80:0.19548037 81:0.51400428 82:0.083142251 83:0.35220181 84:0.19865099 85:-0.19839014 86:-0.3264674 87:0.21641925 88:-0.47156522 89:-0.075030188 90:0.3132178 
7.039485045232087 1:0.77064599 2:0.68430966 3:0.36703498 4:0.59806853 5:0.55892686 6:0.40308559 7:0.42769714 8:0.42769714 9:0.42769714 10:0.67862885 11:0.47325745 12:0.50397043 13:0.52511263 14:0.31038564 15:0.64762777 16:0.51750739 17:0.64459541 18:0.30220153 19:0.28678967 20:0.48853135 21:0.25157139 22:0.30926846 23:0.24123019 24:0.51735677 25:0.056790313 26:-0.050575984 27:0.32118274 28:0.20538162 29:0.35170458 30:0.38726161 31:-0.12093786 32:0.086319786 33:0.32135855 34:0.34529461 35:0.17532588 36:0.476019 37:0.056072814 38:0.33246931 39:0.20093666 40:-0.24867308 41:-0.32315759 42:0.25046863 43:-0.50615637 44:-0.06687265 45:0.35174263 46:0.76510104 47:0.68965282 48:0.35967843 49:0.59550579 50:0.56126003 51:0.39855604 52:0.42769714 53:0.42769714 54:0.42769714 55:0.6784479 56:0.47931701 57:0.50060499 58:0.51142146 59:0.32641114 60:0.65303625 61:0.49875923 62:0.65473126 63:0.30164497 64:0.26304267 65:0.5024546 66:0.26423324 67:0.29744678 68:0.25457697 69:0.52896456 70:0.013671181 71:-0.022376032 72:0.35563879 73:0.19013204 74:0.36207937 75:0.39916777 76:-0.14057299 77:0.093045907 78:0.32539582 79:0.3296864 80:0.1912685 81:0.48339432 82:0.027325919 83:0.3501799 84:0.22681479 85:-0.30771676 86:-0.28181325 87:0.30580939 88:-0.52632084 89:-0.029911471 90:0.41530086 
2.340881949327171 1:0.85161017 2:0.54139085 3:0.36841115 4:0.64303772 5:0.49637856 6:0.40847471 7:0.43683796 8:0.43683796 9:0.43683796 10:0.68058585 11:0.43078105 12:0.54374991 13:0.46289353 14:0.34858481 15:0.68899849 16:0.60548831 17:0.56197652 18:0.27320058 19:0.33423093 20:0.48623485 21:0.2443443 22:0.25484933 23:0.33500015 24:0.5524234 25:-0.011870149 26:0.06718457 27:0.34120273 28:0.20642769 29:0.41959294 30:0.37797765 31:-0.13617576 32:0.18548891 33:0.25429795 34:0.2742701 35:0.23047056 36:0.51412431 37:0.062974708 38:0.41049459 39:0.21548327 40:-0.41077791 41:-0.044199718 42:0.29876716 43:-0.53505134 44:0.074025303 45:0.21176801 46:0.85207347 47:0.53555068 48:0.37118917 49:0.64395728 50:0.49332452 51:0.40895641 52:0.43683796 53:0.43683796 54:0.43683796 55:0.68019041 56:0.42732548 57:0.5444017 58:0.4632375 59:0.34877806 60:0.68836774 61:0.60772415 62:0.55932355 63:0.27351111 64:0.33626457 65:0.48552066 66:0.24168317 67:0.25056481 68:0.34504824 69:0.56193483 70:-0.011583835 71:0.076329305 72:0.34618732 73:0.20418381 74:0.42955135 75:0.3868868 76:-0.14076028 77:0.19891099 78:0.2632033 79:0.27201844 80:0.23111822 81:0.51596515 82:0.064806305 83:0.41171966 84:0.20984854 85:-0.41078859 86:-0.032204441 87:0.29938002 88:-0.5399571 89:0.090358274 90:0.21637227 
0.01033319493132299 1:0.85007672 2:0.54514562 3:0.3755141 4:0.64257208 5:0.496412 6:0.41095698 7:0.4361682 8:0.4361682 9:0.4361682 10:0.67893941 11:0.42796687 12:0.54513801 13:0.46146367 14:0.34562321 15:0.69310686 16:0.60620444 17:0.56485805 18:0.27677615 19:0.33715527 20:0.48399955 21:0.24178251 22:0.25321208 23:0.33179241 24:0.54789409 25:-0.0139553 26:0.057333378 27:0.34597189 28:0.20183432 29:0.42886896 30:0.3829283 31:-0.14483057 32:0.19292959 33:0.27506402 34:0.28233715 35:0.22760888 36:0.50851727 37:0.068107441 38:0.40314295 39:0.20678219 40:-0.40961533 41:-0.061576256 42:0.29450915 43:-0.54048951 44:0.074017859 45:0.22359775 46:0.84296623 47:0.5701836 48:0.38038688 49:0.63895422 50:0.50865839 51:0.41418307 52:0.4361682 53:0.4361682 54:0.4361682 55:0.67841754 56:0.43838441 57:0.54647417 58:0.47438458 59:0.34530268 60:0.69982357 61:0.59948957 62:0.57893275 63:0.28189302 64:0.33484376 65:0.48341351 66:0.25045579 67:0.2584015 68:0.31912496 69:0.54202222 70:-0.018213304 71:0.023077044 72:0.39050074 73:0.20836356 74:0.40822921 75:0.37428407 76:-0.1318691 77:0.15272463 78:0.29404477 79:0.29423386 80:0.22020564 81:0.52088545 82:0.070197226 83:0.38789497 84:0.21901356 85:-0.30239559 86:-0.24390507 87:0.26221727 88:-0.52105502 89:0.012254279 90:0.24781333 
7.950969947104912 1:0.82669123 2:0.58094421 3:0.379163 4:0.62600205 5:0.50882567 6:0.40886437 7:0.4265435 8:0.4265435 9:0.4265435 10:0.66784064 11:0.43527972 12:0.53860514 13:0.47059924 14:0.32648551 15:0.69789315 16:0.58416251 17:0.58237103 18:0.27912447 19:0.32541048 20:0.47226076 21:0.24637308 22:0.2476561 23:0.31180226 24:0.53553872 25:-0.015559475 26:-0.0011171071 27:0.39355582 28:0.19481497 29:0.4025124 30:0.36734283 31:-0.13493865 32:0.12750702 33:0.3115432 34:0.3043767 35:0.20163013 36:0.50595259 37:0.060913477 38:0.37331033 39:0.21862088 40:-0.27348698 41:-0.29775616 42:0.26125354 43:-0.51545761 44:-0.034419881 45:0.26337933 46:0.80953041 47:0.6186487 48:0.37878075 49:0.61792277 50:0.52612968 51:0.40869279 52:0.4265435 53:0.4265435 54:0.4265435 55:0.66912253 56:0.45012114 57:0.53356667 58:0.48984589 59:0.32455816 60:0.70080986 61:0.56672258 62:0.60213689 63:0.28381867 64:0.31544264 65:0.47462462 66:0.25645793 67:0.26883825 68:0.276967 69:0.52652266 70:-0.00027217719 71:-0.037876716 72:0.40105005 73:0.20149111 74:0.37694571 75:0.36226643 76:-0.10702796 77:0.081753656 78:0.29045722 79:0.32393688 80:0.19889299 81:0.5091915 82:0.064161905 83:0.34711279 84:0.22909217 85:-0.2593462 86:-0.34036247 87:0.28066686 88:-0.4861417 89:-0.096266669 90:0.27241577 
3.559405392548194 1:0.8289166 2:0.66380469 3:0.42501934 4:0.64361178 5:0.56024624 6:0.44331524 7:0.45485657 8:0.45485657 9:0.45485657 10:0.69152972 11:0.49028048 12:0.57687389 13:0.52545061 14:0.3503748 15:0.72484995 16:0.58909336 17:0.64537331 18:0.32891463 19:0.34509497 20:0.50499448 21:0.29876804 22:0.29611844 23:0.30661917 24:0.55671634 25:0.0056460746 26:0.01562347 27:0.42118801 28:0.22998809 29:0.40674198 30:0.39663962 31:-0.022397706 32:0.097285854 33:0.22964485 34:0.33508455 35:0.22488992 36:0.55720325 37:0.10109764 38:0.3646171 39:0.26861563 40:-0.27621254 41:-0.26205812 42:0.29405953 43:-0.26648387 44:-0.19883671 45:0.070055176 46:0.83387598 47:0.64979607 48:0.42318435 49:0.64762449 50:0.5523781 51:0.44148786 52:0.45485657 53:0.45485657 54:0.45485657 55:0.69582262 56:0.47420682 57:0.56621918 58:0.50120101 59:0.32873086 60:0.69366204 61:0.59942772 62:0.63054897 63:0.31675652 64:0.35078237 65:0.4995495 66:0.28262857 67:0.2920762 68:0.3086969 69:0.54583312 70:-0.024401438 71:0.049984976 72:0.40304133 73:0.2320993 74:0.40597209 75:0.39061819 76:-0.040728536 77:0.12535714 78:0.20641917 79:0.29747033 80:0.21000467 81:0.53718077 82:0.10213727 83:0.36855109 84:0.24849471 85:-0.36742039 86:-0.17123009 87:0.3209651 88:-0.30323364 89:-0.14428214 90:0.029430595 
3.445671788470133 1:0.73389573 2:0.60915962 3:0.30492323 4:0.57401509 5:0.50112164 6:0.34487078 7:0.39286147 8:0.39286147 9:0.39286147 10:0.64323622 11:0.44055978 12:0.46954417 13:0.44523871 14:0.30740207 15:0.59676207 16:0.50479412 17:0.56168278 18:0.22019619 19:0.23131257 20:0.4612305 21:0.25006755 22:0.24884906 23:0.2423538 24:0.53098249 25:-0.13083198 26:0.091710478 27:0.38736055 28:0.15919476 29:0.3216722 30:0.3740248 31:-0.21600511 32:0.1081345 33:0.3407703 34:0.22226 35:0.20350319 36:0.45698143 37:-0.03398012 38:0.36444242 39:0.27011698 40:-0.51913002 41:-0.058057537 42:0.37599401 43:-0.60074085 44:-0.050961949 45:0.3420096 46:0.73471558 47:0.60644884 48:0.29485981 49:0.57410403 50:0.498411 51:0.33930371 52:0.39286147 53:0.39286147 54:0.39286147 55:0.64392436 56:0.44276247 57:0.46590708 58:0.44102086 59:0.31316298 60:0.59424456 61:0.50428343 62:0.55406046 63:0.21270057 64:0.23620911 65:0.4685346 66:0.24386137 67:0.25669226 68:0.25138566 69:0.52815028 70:-0.09446222 71:0.033843547 72:0.40231481 73:0.16272041 74:0.32251906 75:0.37014582 76:-0.23434398 77:0.15113276 78:0.39123987 79:0.21809663 80:0.21381677 81:0.45102812 82:-0.031867005 83:0.38300937 84:0.27501743 85:-0.4351757 86:-0.17337254 87:0.30053767 88:-0.62534306 89:0.010585859 90:0.41771844 
7.683637930989821 1:0.70092313 2:0.46602244 3:0.26118519 4:0.5145568 5:0.38964018 6:0.28622244 7:0.31560525 8:0.31560525 9:0.31560525 10:0.55186228 11:0.34566945 12:0.42802855 13:0.32029303 14:0.24560638 15:0.53638205 16:0.41586221 17:0.44178968 18:0.14621391 19:0.1426571 20:0.37019685 21:0.16579682 22:0.13714091 23:0.17827263 24:0.47068261 25:-0.21876908 26:-0.040663144 27:0.35884527 28:0.059775153 29:0.23928753 30:0.29682413 31:-0.3517248 32:0.10628494 33:0.31821539 34:0.11325374 35:0.12947835 36:0.3822638 37:-0.13054866 38:0.29860457 39:0.18537278 40:-0.56208738 41:-0.25010291 42:0.25595148 43:-0.75041191 44:-0.012407868 45:0.33538992 46:0.71887718 47:0.39679615 48:0.40350751 49:0.52069702 50:0.35554864 51:0.36021274 52:0.31560525 53:0.31560525 54:0.31560525 55:0.48203959 56:0.39606226 57:0.50167096 58:0.24393699 59:0.33726883 60:0.53871484 61:0.55935453 62:0.31503534 63:0.21875545 64:0.27718564 65:0.31102021 66:0.24144377 67:0.096088734 68:0.30623758 69:0.37537502 70:-0.27827689 71:0.14040239 72:0.49745059 73:0.1325581 74:0.26432686 75:0.18946099 76:-0.25261593 77:0.18148844 78:0.36906481 79:0.016220468 80:0.20111035 81:0.44030176 82:-0.010121224 83:0.31904044 84:0.24763211 85:-0.63835126 86:-0.01866846 87:0.61529279 88:-0.66744503 89:0.17163715 90:0.4030474 
1.03536621657439 1:0.60948852 2:0.11789421 3:0.25453315 4:0.40939951 5:0.16184674 6:0.22840413 7:0.20224652 8:0.20224652 9:0.20224652 10:0.4083134 11:0.23754735 12:0.35392275 13:0.17155444 14:0.23158899 15:0.41786668 16:0.41048561 17:0.086146129 18:0.1028855 19:0.14233333 20:0.17641475 21:0.1126903 22:-0.0056056134 23:0.29145556 24:0.25702124 25:-0.40486514 26:0.18950307 27:0.37689509 28:-0.004205738 29:0.19383547 30:0.095156705 31:-0.41838542 32:0.24708992 33:0.20960458 34:-0.083599078 35:0.1897524 36:0.30270176 37:-0.12581942 38:0.26668247 39:0.12249021 40:-0.78876804 41:0.091492791 42:0.49218856 43:-0.81456723 44:0.33027753 45:0.30683874 
1.556263834630307 1:0.17597974 2:-0.42351092 3:-0.069451284 4:0.022822479 5:-0.27871438 6:-0.10174611 7:-0.13225615 8:-0.13225615 9:-0.13225615 10:0.11476243 11:-0.16956086 12:-0.045091068 13:-0.050046296 14:0.060473456 15:-0.053606455 16:-0.069117308 17:-0.38786776 18:-0.15840017 19:-0.23392603 20:-0.15783345 21:-0.16691555 22:-0.227563 23:0.085165705 24:-0.12593414 25:-0.42095784 26:0.4688881 27:-0.072689171 28:-0.34710774 29:-0.056759925 30:-0.19959832 31:-0.55020235 32:0.29676636 33:-0.053822537 34:-0.21485363 35:0.29050771 36:-0.062116935 37:-0.39873513 38:0.072199146 39:-0.17543677 40:-0.66332306 41:0.80717388 42:-0.085211894 43:-0.79256758 44:0.63505214 45:-0.06634526 46:0.17274 47:-0.42501073 48:-0.053241881 49:0.020840701 50:-0.27883661 51:-0.093467442 52:-0.13225615 53:-0.13225615 54:-0.13225615 55:0.11410717 56:-0.16796697 57:-0.04261702 58:-0.046870416 59:0.064467688 60:-0.057108309 61:-0.072427147 62:-0.38970597 63:-0.14431768 64:-0.23340514 65:-0.15727031 66:-0.15880805 67:-0.22469631 68:0.08642833 69:-0.13797381 70:-0.4118636 71:0.47341065 72:-0.086085091 73:-0.34600858 74:-0.057778841 75:-0.20411421 76:-0.54072262 77:0.30616743 78:-0.073310534 79:-0.20784744 80:0.29690438 81:-0.071592848 82:-0.39438411 83:0.075164307 84:-0.17330425 85:-0.64859621 86:0.81522726 87:-0.10739432 88:-0.77745523 89:0.64798404 90:-0.094619763 
8 1:0.20340809 2:-0.39877572 3:-0.077098194 4:0.041015997 5:-0.26082412 6:-0.10099429 7:-0.1228824 8:-0.1228824 9:-0.1228824 10:0.12586999 11:-0.14990517 12:-0.037350115 13:-0.049328194 14:0.072479527 15:-0.038251023 16:-0.043838148 17:-0.37174446 18:-0.16463824 19:-0.22166028 20:-0.15018695 21:-0.16615999 22:-0.23142548 23:0.087487609 24:-0.10345426 25:-0.4417699 26:0.45816168 27:-0.027066788 28:-0.34221968 29:-0.055766845 30:-0.18790476 31:-0.54624414 32:0.28904838 33:-0.023723602 34:-0.22452534 35:0.29486507 36:-0.039146085 37:-0.39685952 38:0.072196894 39:-0.16706674 40:-0.69941375 41:0.78519805 42:-0.028391758 43:-0.80388876 44:0.61608414 45:-0.025048348 46:0.20586078 47:-0.39473914 48:-0.076638241 49:0.04258625 50:-0.25893361 51:-0.10103286 52:-0.1228824 53:-0.1228824 54:-0.1228824 55:0.12387738 56:-0.14550092 57:-0.036210106 58:-0.053127205 59:0.075449683 60:-0.036717332 61:-0.044720823 62:-0.36615741 63:-0.16697278 64:-0.22172523 65:-0.14520666 66:-0.16747903 67:-0.23300723 68:0.092238108 69:-0.102951 70:-0.45808415 71:0.4541877 72:-0.02671728 73:-0.34277008 74:-0.05141731 75:-0.18808199 76:-0.55476458 77:0.29106936 78:-0.02920976 79:-0.23013056 80:0.29640129 81:-0.037217743 82:-0.39873053 83:0.075743366 84:-0.16799015 85:-0.71838421 86:0.77911533 87:-0.027461875 88:-0.8150654 89:0.61599638 90:-0.029954128 
0.1649124495932845 1:0.65252209 2:0.13355255 3:0.21248095 4:0.44028186 5:0.18972291 6:0.22123799 7:0.22916676 8:0.22916676 9:0.22916676 10:0.44872876 11:0.20431598 12:0.3735299 13:0.16933 14:0.24971491 15:0.3684865 16:0.43199156 17:0.17534454 18:0.070062665 19:0.15259296 20:0.22074445 21:0.065019322 22:0.023573115 23:0.27618737 24:0.33813375 25:-0.40660438 26:0.26043286 27:0.38456932 28:0.012227665 29:0.25633653 30:0.13961041 31:-0.4201765 32:0.24025212 33:0.12523003 34:-0.11006875 35:0.2951145 36:0.36344915 37:-0.12680451 38:0.26614447 39:0.059971006 40:-0.78441171 41:0.41946196 42:0.45713349 43:-0.80996491 44:0.37844469 45:0.077983192 46:0.65018326 47:0.1292338 48:0.2050839 49:0.43892527 50:0.18380318 51:0.21780029 52:0.22916676 53:0.22916676 54:0.22916676 55:0.45152855 56:0.20415529 57:0.36913772 58:0.1742388 59:0.26125386 60:0.36863982 61:0.42632297 62:0.16345087 63:0.066462861 64:0.1490332 65:0.22054937 66:0.065965951 67:0.027625736 68:0.28780192 69:0.33921138 70:-0.40111695 71:0.30675558 72:0.39569988 73:0.011191202 74:0.26126079 75:0.14185421 76:-0.4213794 77:0.27676719 78:0.13335083 79:-0.10305105 80:0.31835204 81:0.3681489 82:-0.12825551 83:0.277648 84:0.065463052 85:-0.77284967 86:0.4744231 87:0.47924707 88:-0.80806803 89:0.42611367 90:0.095725444 
8 1:0.63742768 2:0.082600019 3:0.20691002 4:0.43373074 5:0.16457156 6:0.21853678 7:0.22904422 8:0.22904422 9:0.22904422 10:0.44761007 11:0.18397442 12:0.36985275 13:0.17346883 14:0.25364467 15:0.35792875 16:0.41985171 17:0.14516976 18:0.067219901 19:0.1457095 20:0.21484026 21:0.05529586 22:0.01835842 23:0.29499958 24:0.33583258 25:-0.41232262 26:0.3120014 27:0.37623445 28:0.0018171689 29:0.26335481 30:0.13957044 31:-0.42826602 32:0.30030992 33:0.10939639 34:-0.10067377 35:0.32331466 36:0.34601068 37:-0.12843239 38:0.28451118 39:0.043366847 40:-0.77857026 41:0.49648068 42:0.44798642 43:-0.81146893 44:0.45614212 45:0.063418271 46:0.64573889 47:0.10732836 48:0.20755532 49:0.43666201 50:0.17474587 51:0.21865815 52:0.22904422 53:0.22904422 54:0.22904422 55:0.44920673 56:0.19373203 57:0.37013962 58:0.17299417 59:0.25541916 60:0.36296502 61:0.42411831 62:0.15575955 63:0.067175702 64:0.14790575 65:0.21744668 66:0.060001101 67:0.029604104 68:0.29572122 69:0.33819004 70:-0.39469724 71:0.30464071 72:0.38227054 73:0.018841247 74:0.27796705 75:0.1399083 76:-0.41293607 77:0.29789616 78:0.12037256 79:-0.10321863 80:0.31710587 81:0.3557964 82:-0.12830655 83:0.27913423 84:0.05282052 85:-0.76132947 86:0.48307321 87:0.46576207 88:-0.80497062 89:0.43205983 90:0.080692539 
5.760050494081912 1:0.6239538 2:0.099296192 3:0.17745742 4:0.41459638 5:0.15672022 6:0.19177629 7:0.20594525 8:0.20594525 9:0.20594525 10:0.43041942 11:0.18047112 12:0.34227259 13:0.15485149 14:0.24532113 15:0.34491733 16:0.39666176 17:0.13776035 18:0.040657867 19:0.12109383 20:0.20261036 21:0.043302606 22:0.0063933895 23:0.27369311 24:0.31975753 25:-0.42061248 26:0.29372162 27:0.38787895 28:-0.014707009 29:0.2447138 30:0.12322032 31:-0.4453498 32:0.28622142 33:0.11639268 34:-0.12211573 35:0.31190016 36:0.34733921 37:-0.15447408 38:0.26746071 39:0.045941355 40:-0.78514641 41:0.47606308 42:0.47220312 43:-0.84029898 44:0.4150547 45:0.089917557 46:0.61997556 47:0.087801027 48:0.18012176 49:0.41373095 50:0.15305599 51:0.19236658 52:0.20594525 53:0.20594525 54:0.20594525 55:0.42950725 56:0.17637884 57:0.34293076 58:0.15437447 59:0.24310253 60:0.34287704 61:0.39689584 62:0.12720375 63:0.035560023 64:0.12176304 65:0.19392737 66:0.0355073 67:0.010074715 68:0.26826487 69:0.31688466 70:-0.41751032 71:0.29732296 72:0.37786921 73:-0.012896864 74:0.23803006 75:0.12074718 76:-0.44317291 77:0.28299446 78:0.10694786 79:-0.12075745 80:0.30982554 81:0.3428303 82:-0.15336872 83:0.26065107 84:0.035449588 85:-0.78236635 86:0.48086842 87:0.45821668 88:-0.83037618 89:0.43261702 90:0.077288585 
4.430516817080186 1:0.61153925 2:0.057273694 3:0.13372279 4:0.37644686 5:0.13093021 6:0.15841922 7:0.16431402 8:0.16431402 9:0.16431402 10:0.38558188 11:0.16256514 12:0.30800123 13:0.10817491 14:0.21805672 15:0.3187803 16:0.36731188 17:0.099295285 18:0.0088382158 19:0.089904918 20:0.15478687 21:0.019617289 22:-0.041918167 23:0.21813457 24:0.26683523 25:-0.42507262 26:0.25833359 27:0.37612173 28:-0.028158058 29:0.20372772 30:0.085135544 31:-0.46018352 32:0.21664902 33:0.11000589 34:-0.16923087 35:0.27354817 36:0.32956433 37:-0.18750131 38:0.21027819 39:0.03039033 40:-0.79510483 41:0.4257011 42:0.46753175 43:-0.85899066 44:0.33459309 45:0.093341725 46:0.59524336 47:0.094588005 48:0.11714926 49:0.37652771 50:0.13619272 51:0.14637996 52:0.16431402 53:0.16431402 54:0.16431402 55:0.39315753 56:0.16654628 57:0.29557736 58:0.11703004 59:0.22512977 60:0.3172846 61:0.35989797 62:0.10583915 63:-0.0028164416 64:0.083769507 65:0.16442284 66:0.018890874 67:-0.037023775 68:0.21228857 69:0.27983521 70:-0.43536724 71:0.27412522 72:0.41438327 73:-0.047119745 74:0.18250609 75:0.0790898 76:-0.47054274 77:0.23049774 78:0.13715598 79:-0.15909796 80:0.28371342 81:0.3389979 82:-0.19235942 83:0.22300657 84:0.040592208 85:-0.79859867 86:0.44671463 87:0.52191903 88:-0.86274852 89:0.36947485 90:0.14285255 
1.07324362564396 1:0.62289074 2:0.081818503 3:0.17157462 4:0.413646 5:0.15166481 6:0.19001035 7:0.20594796 8:0.20594796 9:0.20594796 10:0.43074336 11:0.1727549 12:0.34099356 13:0.13593466 14:0.25443533 15:0.37009695 16:0.39654865 17:0.1305748 18:0.039026139 19:0.12155908 20:0.19788155 21:0.038185094 22:0.0093824626 23:0.27396282 24:0.3201956 25:-0.42051255 26:0.28575369 27:0.37064502 28:-0.012884034 29:0.24649777 30:0.12357439 31:-0.44476443 32:0.27490702 33:0.12035659 34:-0.13519194 35:0.31135824 36:0.3813942 37:-0.15343034 38:0.26518883 39:0.037337071 40:-0.78380926 41:0.45436399 42:0.48352398 43:-0.83575602 44:0.41522491 45:0.09310549 46:0.62237634 47:0.080298282 48:0.16674364 49:0.41448707 50:0.15423425 51:0.18739329 52:0.20594796 53:0.20594796 54:0.20594796 55:0.43246874 56:0.17238708 57:0.33890104 58:0.14752492 59:0.23762783 60:0.41989089 61:0.3965054 62:0.13608143 63:0.035885539 64:0.12086811 65:0.20068995 66:0.035783532 67:0.0091003612 68:0.26946404 69:0.3230098 70:-0.41934512 71:0.2562532 72:0.38161128 73:-0.0073799499 74:0.24447485 75:0.12460654 76:-0.43988151 77:0.26261717 78:0.12849614 79:-0.14814417 80:0.24836624 81:0.45372602 82:-0.15476906 83:0.26529899 84:0.035675549 85:-0.78023253 86:0.43476361 87:0.49105396 88:-0.83339398 89:0.3958627 90:0.10196327 
8 1:0.68108318 2:0.17405111 3:0.23854466 4:0.46490197 5:0.21912504 6:0.24603784 7:0.25210695 8:0.25210695 9:0.25210695 10:0.47134904 11:0.23261585 12:0.39875029 13:0.19089985 14:0.27114161 15:0.39498434 16:0.45845589 17:0.2056341 18:0.093325408 19:0.17800668 20:0.24415983 21:0.089560462 22:0.043510065 23:0.2938734 24:0.35761555 25:-0.37540226 26:0.1946898 27:0.38763335 28:0.035114789 29:0.27630418 30:0.15873658 31:-0.3949763 32:0.23405692 33:0.18394165 34:-0.089549425 35:0.30966717 36:0.39122339 37:-0.10244239 38:0.28268583 39:0.085788522 40:-0.72781849 41:0.4149201 42:0.40600409 43:-0.79834717 44:0.33577805 45:0.1896585 46:0.68195889 47:0.17914484 48:0.24850366 49:0.4654254 50:0.22208104 51:0.25116405 52:0.25210695 53:0.25210695 54:0.25210695 55:0.46775798 56:0.23385134 57:0.40412108 58:0.18649944 59:0.26530934 60:0.39676546 61:0.46329819 62:0.22314961 63:0.10358218 64:0.18203959 65:0.25460755 66:0.09622857 67:0.044935822 68:0.3055791 69:0.36434131 70:-0.35907509 71:0.15817294 72:0.40179806 73:0.0386039 74:0.28886086 75:0.16532331 76:-0.39185718 77:0.25330786 78:0.1921754 79:-0.094759301 80:0.29676713 81:0.38941685 82:-0.099218796 83:0.28606569 84:0.088867963 85:-0.7167474 86:0.37065596 87:0.40984432 88:-0.79741412 89:0.34705594 90:0.19017559 
8 1:0.71683933 2:0.21887777 3:0.28388739 4:0.50266194 5:0.26233487 6:0.2869963 7:0.28889466 8:0.28889466 9:0.28889466 10:0.50474241 11:0.26812125 12:0.44031754 13:0.22286532 14:0.29249363 15:0.43024804 16:0.50058057 17:0.25654957 18:0.13367507 19:0.21870335 20:0.28092092 21:0.12360652 22:0.076481435 23:0.31922243 24:0.39061872 25:-0.32493857 26:0.16442767 27:0.43715785 28:0.073772358 29:0.3116875 30:0.19096833 31:-0.35702162 32:0.29253845 33:0.22745095 34:-0.059011054 35:0.31686563 36:0.42018557 37:-0.063172585 38:0.30529338 39:0.11353307 40:-0.72305448 41:0.27714073 42:0.46445553 43:-0.76538413 44:0.3714891 45:0.21339703 46:0.71807802 47:0.21919014 48:0.30744416 49:0.5025972 50:0.26395103 51:0.29914767 52:0.28889466 53:0.28889466 54:0.28889466 55:0.49552159 56:0.26630337 57:0.45234926 58:0.21342998 59:0.27821473 60:0.43154943 61:0.50967276 62:0.26159769 63:0.14594605 64:0.227581 65:0.273509 66:0.12514821 67:0.070585458 68:0.3153717 69:0.3784102 70:-0.32969418 71:0.15664194 72:0.42379989 73:0.079800857 74:0.31230679 75:0.17887329 76:-0.35157886 77:0.29167486 78:0.20763035 79:-0.068662149 80:0.29012593 81:0.41075657 82:-0.054509234 83:0.28542044 84:0.10434346 85:-0.74570116 86:0.17263427 87:0.42795366 88:-0.75963632 89:0.36328755 90:0.16740076 
8 1:0.753835 2:0.28161576 3:0.34890472 4:0.53657296 5:0.31066013 6:0.33670828 7:0.3219586 8:0.3219586 9:0.3219586 10:0.52584175 11:0.30649346 12:0.48965985 13:0.24358062 14:0.30036091 15:0.46865507 16:0.54730311 17:0.31482678 18:0.18375762 19:0.26504191 20:0.30869423 21:0.16275383 22:0.10035791 23:0.33054437 24:0.40678114 25:-0.28703228 26:0.1465446 27:0.4663781 28:0.11559816 29:0.34449147 30:0.19974666 31:-0.31263427 32:0.29334331 33:0.23664265 34:-0.038681025 35:0.29422832 36:0.44765727 37:-0.017217927 38:0.30256173 39:0.14174514 40:-0.70241809 41:0.13742441 42:0.43979563 43:-0.71509701 44:0.37915428 45:0.1808323 46:0.75528541 47:0.29615621 48:0.34999508 49:0.53682261 50:0.31945008 51:0.33722718 52:0.3219586 53:0.3219586 54:0.3219586 55:0.52585726 56:0.30970737 57:0.48993894 58:0.24403973 59:0.29232835 60:0.46927319 61:0.54778801 62:0.32919179 63:0.18451542 64:0.26340142 65:0.32166321 66:0.1523381 67:0.097756146 68:0.33193207 69:0.39797774 70:-0.28666299 71:0.13857935 72:0.43904823 73:0.11188195 74:0.34161056 75:0.19456318 76:-0.31373642 77:0.26747351 78:0.2222861 79:-0.037778167 80:0.27494932 81:0.44861243 82:-0.018414747 83:0.30428427 84:0.13166744 85:-0.68269266 86:0.03899296 87:0.43610283 88:-0.71613667 89:0.35471305 90:0.16540263 
8 1:0.79362631 2:0.36218231 3:0.37924854 4:0.574986 5:0.37138914 6:0.37081688 7:0.3601388 8:0.3601388 9:0.3601388 10:0.56830818 11:0.35436183 12:0.52312185 13:0.287233 14:0.32422993 15:0.50766387 16:0.57941483 17:0.39736776 18:0.20994361 19:0.2983397 20:0.36723487 21:0.19448663 22:0.13861435 23:0.3516269 24:0.43866844 25:-0.22622965 26:0.12102586 27:0.47317308 28:0.14735452 29:0.36801148 30:0.24398116 31:-0.26442425 32:0.23611614 33:0.2667949 34:0.0061575527 35:0.29409801 36:0.49221089 37:0.017265845 38:0.33710311 39:0.17902271 40:-0.63863136 41:0.067336638 42:0.4537371 43:-0.67883422 44:0.24429393 45:0.22764178 46:0.79262476 47:0.40405917 48:0.3669266 49:0.57356619 50:0.38863144 51:0.36654106 52:0.3601388 53:0.3601388 54:0.3601388 55:0.57221463 56:0.36471065 57:0.51807908 58:0.29283988 59:0.31952223 60:0.51047295 61:0.57491855 62:0.41255338 63:0.21500406 64:0.29554378 65:0.36736496 66:0.20739894 67:0.14583259 68:0.31609424 69:0.45225482 70:-0.22651933 71:0.09573634 72:0.46885617 73:0.14759024 74:0.34719809 75:0.25521828 76:-0.21732385 77:0.11414544 78:0.25690944 79:0.013464931 80:0.27433382 81:0.50287383 82:0.016169136 83:0.32217652 84:0.19978882 85:-0.63727643 86:0.028704367 87:0.45788123 88:-0.62864382 89:0.050893289 90:0.24467434 
8 1:0.8237202 2:0.45304643 3:0.39596356 4:0.60516126 5:0.43159026 6:0.39817989 7:0.39326343 8:0.39326343 9:0.39326343 10:0.60798804 11:0.39680659 12:0.54756801 13:0.3317779 14:0.33581934 15:0.53579523 16:0.60233525 17:0.46637513 18:0.24879182 19:0.3261251 20:0.40538787 21:0.23701905 22:0.18014865 23:0.34077314 24:0.47819882 25:-0.19402679 26:0.12299413 27:0.48477715 28:0.17836518 29:0.38466417 30:0.28343784 31:-0.16391918 32:0.11988512 33:0.26886517 34:0.055567566 35:0.27483199 36:0.52402746 37:0.049916171 38:0.34440095 39:0.22524032 40:-0.6001882 41:0.033163054 42:0.4675138 43:-0.57027423 44:0.03099331 45:0.25130335 46:0.82223836 47:0.46060518 48:0.38570113 49:0.60444866 50:0.43555169 51:0.393449 52:0.39326343 53:0.39326343 54:0.39326343 55:0.61006539 56:0.40799284 57:0.54246072 58:0.33439036 59:0.34441519 60:0.53190656 61:0.59709323 62:0.48361617 63:0.24530055 64:0.32141912 65:0.42003867 66:0.23474843 67:0.18502102 68:0.33874808 69:0.48633533 70:-0.18960789 71:0.12238256 72:0.46848023 73:0.1767195 74:0.38714651 75:0.29615579 76:-0.15716108 77:0.11354467 78:0.26600981 79:0.058715128 80:0.28083729 81:0.52135939 82:0.045744239 83:0.3564612 84:0.22418927 85:-0.59500833 86:0.028868738 87:0.45296639 88:-0.50117354 89:-0.10498338 90:0.23989237 
8 1:0.80880707 2:0.43722593 3:0.36322738 4:0.59006048 5:0.41573711 6:0.37448918 7:0.37802893 8:0.37802893 9:0.37802893 10:0.59908826 11:0.37892808 12:0.52315602 13:0.31377579 14:0.32411259 15:0.57952063 16:0.57907865 17:0.4655415 18:0.22880921 19:0.30189316 20:0.40894973 21:0.21805092 22:0.168703 23:0.32791661 24:0.47670324 25:-0.22095162 26:0.14064932 27:0.45263594 28:0.15768262 29:0.3783235 30:0.28756182 31:-0.18410513 32:0.11461326 33:0.25461995 34:0.044062763 35:0.22752891 36:0.55205018 37:0.024707864 38:0.35235833 39:0.20728565 40:-0.62857653 41:0.057423732 42:0.43681436 43:-0.51548098 44:-0.13332416 45:0.22341628 46:0.8112398 47:0.40088769 48:0.35881871 49:0.59235679 50:0.39860685 51:0.371825 52:0.37802893 53:0.37802893 54:0.37802893 55:0.59848855 56:0.37765539 57:0.52441042 58:0.31874435 59:0.33322443 60:0.5866442 61:0.58466432 62:0.44444725 63:0.22530396 64:0.30404214 65:0.40903681 66:0.2131648 67:0.16749578 68:0.34684173 69:0.48224475 70:-0.23841085 71:0.19988698 72:0.44873972 73:0.15852231 74:0.39019771 75:0.28808844 76:-0.20573536 77:0.15899508 78:0.25171309 79:0.064322309 80:0.21365774 81:0.55329712 82:0.023421119 83:0.37362684 84:0.20102068 85:-0.65109017 86:0.14781231 87:0.43088798 88:-0.55627162 89:-0.06258973 90:0.21680934 
6.12383149890038 1:0.76052762 2:0.32508956 3:0.30600314 4:0.54113689 5:0.33554311 6:0.31958726 7:0.32605211 8:0.32605211 9:0.32605211 10:0.54523048 11:0.32406159 12:0.47717576 13:0.25322755 14:0.29206992 15:0.55692777 16:0.53399621 17:0.36855175 18:0.17385719 19:0.25161502 20:0.34996443 21:0.16576449 22:0.11317986 23:0.31361431 24:0.44074126 25:-0.303269 26:0.19642376 27:0.42295895 28:0.10563141 29:0.34350583 30:0.23695226 31:-0.2701006 32:0.12884046 33:0.22900244 34:-0.00078363496 35:0.17112746 36:0.52552279 37:-0.030765057 38:0.33137746 39:0.15766683 40:-0.71853513 41:0.16908895 42:0.4110579 43:-0.63141169 44:-0.077476079 45:0.22136652 46:0.76091567 47:0.30840799 48:0.29954261 49:0.54114776 50:0.32509327 51:0.31526127 52:0.32605211 53:0.32605211 54:0.32605211 55:0.54877844 56:0.31600903 57:0.46815099 58:0.26621165 59:0.32365439 60:0.55541682 61:0.53351807 62:0.33417751 63:0.16237156 64:0.25042055 65:0.33399674 66:0.15995263 67:0.11840611 68:0.33992855 69:0.4529899 70:-0.30224494 71:0.23789007 72:0.44205657 73:0.10579803 74:0.3572154 75:0.25153247 76:-0.287437 77:0.17622565 78:0.25688288 79:0.0024085567 80:0.22154325 81:0.54925758 82:-0.033774053 83:0.35559502 84:0.16750513 85:-0.71856454 86:0.2376247 87:0.43849935 88:-0.66555115 89:0.0022087727 90:0.26202846 
8 1:0.70952049 2:0.24191566 3:0.24678723 4:0.49281422 5:0.2706316 6:0.26443173 7:0.27798811 8:0.27798811 9:0.27798811 10:0.5023973 11:0.26840584 12:0.41749457 13:0.22156485 14:0.29546835 15:0.51058648 16:0.4844884 17:0.28563386 18:0.11711263 19:0.20164931 20:0.29776263 21:0.11936243 22:0.069717975 23:0.29512549 24:0.39582566 25:-0.34683391 26:0.1782475 27:0.4132423 28:0.057990145 29:0.3017842 30:0.19612098 31:-0.34531924 32:0.14482357 33:0.20967033 34:-0.051191139 35:0.20704366 36:0.52362823 37:-0.081189818 38:0.30989172 39:0.12160625 40:-0.76277347 41:0.19608338 42:0.41655081 43:-0.76161044 44:0.14071493 45:0.2141008 46:0.70759035 47:0.22163324 48:0.24811023 49:0.49228165 50:0.26111931 51:0.26439455 52:0.27798811 53:0.27798811 54:0.27798811 55:0.50241731 56:0.26662301 57:0.4173508 58:0.21877075 59:0.31417604 60:0.50883431 61:0.48416939 62:0.26658273 63:0.11519067 64:0.20223749 65:0.29206047 66:0.11903819 67:0.070997271 68:0.30636205 69:0.39152445 70:-0.33828223 71:0.17460356 72:0.43694002 73:0.058931166 74:0.30184458 75:0.19638252 76:-0.36319549 77:0.21826762 78:0.24436994 79:-0.050347603 80:0.23862934 81:0.53058891 82:-0.079695478 83:0.31753864 84:0.12287874 85:-0.73308454 86:0.064231541 87:0.4788507 88:-0.77803593 89:0.25302764 90:0.25018243 
8 1:0.67884147 2:0.17569826 3:0.22398651 4:0.46443857 5:0.22493403 6:0.238115 7:0.25103599 8:0.25103599 9:0.25103599 10:0.47529766 11:0.23825642 12:0.39054073 13:0.19618791 14:0.30110064 15:0.47231095 16:0.45358046 17:0.21161152 18:0.085689246 19:0.17312052 20:0.24990739 21:0.0907642 22:0.044706454 23:0.28581634 24:0.36325089 25:-0.35930266 26:0.13934764 27:0.41463542 28:0.03055855 29:0.26846073 30:0.16466514 31:-0.39445736 32:0.2368187 33:0.23037158 34:-0.07429651 35:0.22272975 36:0.50082091 37:-0.10733949 38:0.28820349 39:0.095834158 40:-0.74780618 41:-0.00046708794 42:0.46392544 43:-0.80694373 44:0.29279949 45:0.23785698 46:0.68194467 47:0.1685451 48:0.24233041 49:0.46378564 50:0.21766014 51:0.24697395 52:0.25103599 53:0.25103599 54:0.25103599 55:0.47022998 56:0.2402913 57:0.39853281 58:0.1909354 59:0.32375375 60:0.47605304 61:0.45734113 62:0.19502799 63:0.095415079 64:0.17796673 65:0.24078899 66:0.097759762 67:0.042413941 68:0.29891253 69:0.35220551 70:-0.3692938 71:0.1848231 72:0.42146434 73:0.030279833 74:0.28270148 75:0.16158573 76:-0.39621666 77:0.27396473 78:0.23576834 79:-0.082120859 80:0.25578941 81:0.50709581 82:-0.10140869 83:0.28655021 84:0.10009845 85:-0.76516827 86:0.075248073 87:0.48804073 88:-0.8070692 89:0.34121947 90:0.23922102 
3.19953801731953 1:0.667022 2:0.15909841 3:0.23672862 4:0.44874018 5:0.20387946 6:0.23677019 7:0.23571437 8:0.23571437 9:0.23571437 10:0.45156082 11:0.22777712 12:0.38824175 13:0.17206833 14:0.30682205 15:0.4610507 16:0.44591953 17:0.1799818 18:0.085298626 19:0.16602522 20:0.22251581 21:0.08570829 22:0.026562187 23:0.29584819 24:0.33137625 25:-0.38720877 26:0.19153044 27:0.40400092 28:0.02173678 29:0.26326411 30:0.13502981 31:-0.40212291 32:0.2787718 33:0.22209954 34:-0.10321047 35:0.24657661 36:0.48769806 37:-0.11386811 38:0.26504963 39:0.086112953 40:-0.78506645 41:0.091257395 42:0.4738281 43:-0.81373273 44:0.34131631 45:0.22270302 46:0.67558624 47:0.18554237 48:0.23579069 49:0.45016048 50:0.21576419 51:0.2364736 52:0.23571437 53:0.23571437 54:0.23571437 55:0.45088608 56:0.22936948 57:0.38924226 58:0.17554235 59:0.2971858 60:0.46006587 61:0.44943586 62:0.20215882 63:0.083704944 64:0.16745539 65:0.22738218 66:0.08270529 67:0.028575543 68:0.28355552 69:0.33090885 70:-0.38013219 71:0.15956943 72:0.40161342 73:0.027563997 74:0.26130913 75:0.12600678 76:-0.39608493 77:0.24130451 78:0.21318512 79:-0.096970107 80:0.22331557 81:0.48050432 82:-0.10802925 83:0.2636785 84:0.0765037 85:-0.77312049 86:0.040355628 87:0.46959774 88:-0.81076185 89:0.27839714 90:0.21171504 
7.879440145385976 1:0.69871832 2:0.23193423 3:0.24228276 4:0.47238714 5:0.24851547 6:0.25107691 7:0.25728763 8:0.25728763 9:0.25728763 10:0.47715713 11:0.25709927 12:0.40416125 13:0.19955162 14:0.3051377 15:0.4778199 16:0.46761723 17:0.23993267 18:0.097993572 19:0.18726757 20:0.27138364 21:0.096304437 22:0.047237194 23:0.29061915 24:0.35870166 25:-0.37439112 26:0.21005584 27:0.41543362 28:0.041046235 29:0.27635891 30:0.15002988 31:-0.38151843 32:0.24731119 33:0.23988691 34:-0.069272259 35:0.2214826 36:0.5075056 37:-0.095209405 38:0.28916094 39:0.10264698 40:-0.77192744 41:0.10647573 42:0.4830387 43:-0.7969268 44:0.27345379 45:0.24922155 46:0.69693719 47:0.26245284 48:0.23372739 49:0.47233627 50:0.2630024 51:0.24696663 52:0.25728763 53:0.25728763 54:0.25728763 55:0.47969492 56:0.26277622 57:0.40015726 58:0.19570228 59:0.27601656 60:0.48068179 61:0.46497758 62:0.26322859 63:0.093775 64:0.18207312 65:0.26607085 66:0.10412344 67:0.047186787 68:0.25142071 69:0.37060214 70:-0.35712526 71:0.11293726 72:0.44012023 73:0.037292243 74:0.25172499 75:0.16461608 76:-0.38283657 77:0.18045632 78:0.24137352 79:-0.068706045 80:0.17827002 81:0.50640423 82:-0.10083056 83:0.26891316 84:0.11446584 85:-0.73879371 86:-0.036226053 87:0.51370302 88:-0.79887223 89:0.18463657 90:0.2565918 
8 1:0.71092241 2:0.32535256 3:0.26723737 4:0.49754394 5:0.30509567 6:0.27636115 7:0.28342191 8:0.28342191 9:0.28342191 10:0.50278804 11:0.3032172 12:0.42961472 13:0.2534115 14:0.30674554 15:0.50415907 16:0.496264 17:0.31795868 18:0.11352158 19:0.21391392 20:0.3067333 21:0.1309152 22:0.081999267 23:0.276726 24:0.39138491 25:-0.31866491 26:0.12777059 27:0.46037419 28:0.070980997 29:0.27685486 30:0.18833992 31:-0.33816157 32:0.15279757 33:0.24812394 34:-0.0057237352 35:0.19531788 36:0.52648331 37:-0.068435463 38:0.29550781 39:0.14830377 40:-0.69713331 41:-0.030386008 42:0.53166755 43:-0.74120768 44:0.07511654 45:0.27875425 46:0.70708237 47:0.33781187 48:0.28272481 49:0.49702782 50:0.31080217 51:0.28397521 52:0.28342191 53:0.28342191 54:0.28342191 55:0.49669135 56:0.31032707 57:0.43733067 58:0.22763162 59:0.25652752 60:0.50871343 61:0.49736436 62:0.31127627 63:0.13061981 64:0.21540647 65:0.29308226 66:0.14847508 67:0.068690725 68:0.26696447 69:0.37828135 70:-0.35046823 71:0.17152074 72:0.43000606 73:0.067729255 74:0.26526062 75:0.17807442 76:-0.35489014 77:0.1812534 78:0.22067427 79:-0.024160046 80:0.12749102 81:0.50625376 82:-0.069356333 83:0.28397479 84:0.15801173 85:-0.74095971 86:0.041943188 87:0.49372739 88:-0.76383292 89:0.10915526 90:0.2507214 
8 1:0.73674004 2:0.33912683 3:0.31946915 4:0.52695195 5:0.32509351 6:0.31498095 7:0.31096693 8:0.31096693 9:0.31096693 10:0.52465524 11:0.31624678 12:0.46965918 13:0.27810678 14:0.27054256 15:0.52578811 16:0.52924765 17:0.33394019 18:0.16030371 19:0.27008623 20:0.29674793 21:0.11533737 22:0.093503017 23:0.29113575 24:0.40668689 25:-0.33840727 26:0.26064786 27:0.40480342 28:0.096463866 29:0.30254412 30:0.20721695 31:-0.33536254 32:0.27091486 33:0.205034 34:0.027900684 35:0.14643072 36:0.47963774 37:0.0184375 38:0.17098911 39:0.14136875 40:-0.753673 41:0.2308846 42:0.4031269 43:-0.74859849 44:0.22068667 45:0.19811068 46:0.73724083 47:0.33023316 48:0.31969744 49:0.52717745 50:0.32091544 51:0.31569323 52:0.31096693 53:0.31096693 54:0.31096693 55:0.52406081 56:0.31510938 57:0.47051318 58:0.2759914 59:0.27184021 60:0.5238497 61:0.53029411 62:0.32672148 63:0.16087229 64:0.2723378 65:0.28956702 66:0.11958821 67:0.092747021 68:0.29727435 69:0.40606556 70:-0.33963556 71:0.27453139 72:0.40347503 73:0.096766842 74:0.30476153 75:0.20641471 76:-0.33558407 77:0.28143389 78:0.20367157 79:0.025137947 80:0.14739339 81:0.48235707 82:0.016293897 83:0.1717726 84:0.1454254 85:-0.75537186 86:0.25233704 87:0.40108339 88:-0.75021193 89:0.24429884 90:0.1974031 
8 1:0.21187006 2:-0.39094669 3:-0.064123254 4:0.07818829 5:-0.22594592 6:-0.064050395 7:-0.059091424 8:-0.059091424 9:-0.059091424 10:0.18849526 11:-0.13700131 12:-0.003117653 13:0.042781846 14:0.10544989 15:0.0085086021 16:-0.032117839 17:-0.31489002 18:-0.12498328 19:-0.20781713 20:-0.18165725 21:-0.13168184 22:-0.12523565 23:0.16512229 24:-0.014838649 25:-0.40184104 26:0.47194412 27:-0.016294252 28:-0.26750522 29:0.050404812 30:-0.093428519 31:-0.53273182 32:0.35042712 33:-0.0015564982 34:-0.10289016 35:0.34792416 36:0.020148207 37:-0.36973439 38:0.020003689 39:-0.016624162 40:-0.54366025 41:0.85892378 42:-0.073187149 43:-0.81322636 44:0.65583573 45:0.033601333 46:0.22239667 47:-0.37925487 48:-0.088168339 49:0.083505074 50:-0.22074242 51:-0.074944757 52:-0.059091424 53:-0.059091424 54:-0.059091424 55:0.18886285 56:-0.13499258 57:-0.0016524226 58:0.03079123 59:0.099119334 60:0.017189657 61:-0.02185202 62:-0.30649307 63:-0.14823617 64:-0.20483867 65:-0.16903341 66:-0.12880348 67:-0.13383444 68:0.15778491 69:0.0039645975 70:-0.41175603 71:0.4741109 72:-0.014834689 73:-0.2695399 74:0.047333969 75:-0.090439964 76:-0.55959007 77:0.33766901 78:0.0074034505 79:-0.12724448 80:0.33325443 81:0.036045082 82:-0.38136423 83:0.014615852 84:-0.0054914098 85:-0.57241787 86:0.85511732 87:-0.062057094 88:-0.85093047 89:0.63224838 90:0.046644847 
7.324092797751875 1:0.24860039 2:-0.34835974 3:-0.096113671 4:0.1073256 5:-0.19527909 6:-0.067604061 7:-0.037651805 8:-0.037651805 9:-0.037651805 10:0.20340112 11:-0.12578364 12:0.03170123 13:0.022339271 14:0.090751806 15:0.053576055 16:0.011250084 17:-0.26477453 18:-0.16690935 19:-0.1848808 20:-0.11990238 21:-0.098886806 22:-0.12103615 23:0.16452855 24:0.055964354 25:-0.45736651 26:0.42294406 27:0.14303692 28:-0.24422223 29:0.075422348 30:-0.071362453 31:-0.57941512 32:0.33296351 33:0.015415277 34:-0.1586995 35:0.30730633 36:0.075466032 37:-0.3870018 38:0.039433403 39:0.018928979 40:-0.78073156 41:0.68364719 42:0.17138222 43:-0.90219719 44:0.59319702 45:0.043709271 46:0.25340692 47:-0.38527761 48:-0.017269863 49:0.094095936 50:-0.20783306 51:-0.037496961 52:-0.037651805 53:-0.037651805 54:-0.037651805 55:0.2022677 56:-0.12402921 57:0.031045198 58:0.051788726 59:0.11568799 60:0.037513182 61:-0.014074452 62:-0.29163722 63:-0.10603924 64:-0.23880158 65:-0.066393556 66:-0.069906601 67:-0.099467285 68:0.18670824 69:0.0065067749 70:-0.33909122 71:0.55588302 72:-0.055394625 73:-0.23933202 74:0.078349312 75:-0.082119 76:-0.55066323 77:0.41427678 78:0.00019097645 79:-0.098670586 80:0.35541727 81:0.043990944 82:-0.4122097 83:0.13264014 84:0.032106783 85:-0.56052598 86:0.90066531 87:-0.08166841 88:-0.8353568 89:0.71569284 90:0.01901401 
8 1:0.19478569 2:-0.40434868 3:0.016063466 4:0.06972996 5:-0.23029128 6:-0.028505303 7:-0.060624917 8:-0.060624917 9:-0.060624917 10:0.17767479 11:-0.13621123 12:0.030376492 13:0.030617365 14:0.10530107 15:0.016374534 16:-0.038214263 17:-0.32437207 18:-0.087386058 19:-0.23732871 20:-0.14777176 21:-0.10621266 22:-0.1213808 23:0.16970164 24:-0.054779985 25:-0.40368757 26:0.49704877 27:-0.070983196 28:-0.26057846 29:0.048382611 30:-0.13070926 31:-0.56860536 32:0.3274662 33:-0.011629691 34:-0.11643244 35:0.34681846 36:0.00238038 37:-0.41623987 38:0.057891949 39:-0.029842658 40:-0.53900015 41:0.87707517 42:-0.16852574 43:-0.81299547 44:0.66243194 45:-0.045465799 46:0.15252547 47:-0.42803469 48:0.030352191 49:0.047325505 50:-0.24320852 51:-0.018128369 52:-0.060624917 53:-0.060624917 54:-0.060624917 55:0.16663915 56:-0.16026295 57:0.035155135 58:0.038658444 59:0.091147551 60:0.011411248 61:-0.071989487 62:-0.32615365 63:-0.071411858 64:-0.23596444 65:-0.13048311 66:-0.12777774 67:-0.092518313 68:0.1748307 69:-0.06915648 70:-0.3858237 71:0.47307238 72:0.042661442 73:-0.2446324 74:0.069084348 75:-0.13708717 76:-0.53783718 77:0.36722387 78:-0.025307447 79:-0.08931612 80:0.34256066 81:-0.012326204 82:-0.39846532 83:0.088633841 84:-0.052308008 85:-0.60855577 86:0.82207523 87:-0.0011786753 88:-0.76051587 89:0.71614227 90:-0.06913709 
2.953966353836093 1:0.17577923 2:-0.41716635 3:0.0095521516 4:0.057095781 5:-0.24064481 6:-0.032223372 7:-0.066037992 8:-0.066037992 9:-0.066037992 10:0.16694126 11:-0.15115069 12:0.029899011 13:0.021924224 14:0.091426773 15:0.013292062 16:-0.052749701 17:-0.33013894 18:-0.094345754 19:-0.23638208 20:-0.1449029 21:-0.13390852 22:-0.1226529 23:0.16276523 24:-0.062233333 25:-0.43042038 26:0.44263153 27:0.057903909 28:-0.24410443 29:0.060037585 30:-0.13845492 31:-0.55940508 32:0.32673761 33:-0.0086978783 34:-0.12308946 35:0.33400785 36:-0.0033084314 37:-0.40128628 38:0.065124109 39:-0.040249889 40:-0.66916 41:0.76979299 42:0.031746046 43:-0.80752344 44:0.65950333 45:-0.036525677 46:0.16701313 47:-0.42592578 48:-0.012358456 49:0.051600584 50:-0.24601979 51:-0.042713992 52:-0.066037992 53:-0.066037992 54:-0.066037992 55:0.16701078 56:-0.16269884 57:0.018146119 58:0.029555313 59:0.084581078 60:0.0077182129 61:-0.063809677 62:-0.32934082 63:-0.1035751 64:-0.23898663 65:-0.14254114 66:-0.13669713 67:-0.10912594 68:0.16776591 69:-0.050047929 70:-0.36746041 71:0.51746132 72:-0.066396134 73:-0.25822801 74:0.060121297 75:-0.12867497 76:-0.55816833 77:0.34928449 78:-0.012463814 79:-0.1078958 80:0.33186251 81:-0.0027040619 82:-0.38836629 83:0.074422191 84:-0.033141394 85:-0.47706282 86:0.91117233 87:-0.14477976 88:-0.79479999 89:0.69104678 90:-0.02629604 
1.022661082602072 1:0.17488801 2:-0.42433264 3:-0.018664757 4:0.059859499 5:-0.23879205 6:-0.043212654 7:-0.058039512 8:-0.058039512 9:-0.058039512 10:0.16999754 11:-0.16074419 12:0.032469073 13:0.020880026 14:0.079797714 15:0.025136617 16:-0.050278562 17:-0.31683996 18:-0.11889538 19:-0.24399511 20:-0.13517758 21:-0.13703987 22:-0.10098256 23:0.17838511 24:-0.034895382 25:-0.4098836 26:0.41797094 27:0.14219533 28:-0.24329054 29:0.075512386 30:-0.12946083 31:-0.52818717 32:0.39208146 33:-0.052744249 34:-0.12823566 35:0.32034093 36:0.017810071 37:-0.40432443 38:0.076846127 39:-0.039742306 40:-0.47869411 41:0.77947196 42:-0.051233204 43:-0.71861718 44:0.76033285 45:-0.088687621 46:0.18497305 47:-0.41553925 48:-0.011624827 49:0.064466172 50:-0.2353041 51:-0.038725823 52:-0.058039512 53:-0.058039512 54:-0.058039512 55:0.16826118 56:-0.15466566 57:0.043021789 58:0.0096264477 59:0.079572806 60:0.032180486 61:-0.03932883 62:-0.31594249 63:-0.12047244 64:-0.23653982 65:-0.1375848 66:-0.14001952 67:-0.11356344 68:0.17126262 69:-0.024600543 70:-0.45024674 71:0.38603427 72:0.14167611 73:-0.24752474 74:0.067187775 75:-0.13010689 76:-0.53285945 77:0.38973415 78:-0.086700963 79:-0.14900741 80:0.31381214 81:0.02134514 82:-0.41401084 83:0.065834447 84:-0.054911907 85:-0.60520758 86:0.75583304 87:0.042066269 88:-0.71767108 89:0.7592094 90:-0.12850418 
3.563783943775656 1:0.2874295 2:-0.31996298 3:0.072271716 4:0.15077076 5:-0.15224635 6:0.035671192 7:0.0097897443 8:0.0097897443 9:0.0097897443 10:0.2356101 11:-0.063405659 12:0.12974707 13:0.051520066 14:0.15120201 15:0.11544705 16:0.065932078 17:-0.24108773 18:-0.058403636 19:-0.15083778 20:-0.088921796 21:-0.083547916 22:-0.076455756 23:0.22914337 24:0.04460315 25:-0.44158844 26:0.40740134 27:0.19367698 28:-0.18592691 29:0.1145069 30:-0.076786458 31:-0.50290849 32:0.4053661 33:-0.030287905 34:-0.13256919 35:0.36581075 36:0.10115296 37:-0.34928234 38:0.096632573 39:-0.0040228667 40:-0.69624143 41:0.73237987 42:0.17249106 43:-0.70604201 44:0.76287862 45:-0.087723256 46:0.28365485 47:-0.32007477 48:0.086003255 49:0.14975851 50:-0.15204567 51:0.041675115 52:0.0097897443 53:0.0097897443 54:0.0097897443 55:0.22745747 56:-0.064835478 57:0.14323504 58:0.035873873 59:0.14249799 60:0.12181709 61:0.072060308 62:-0.23925526 63:-0.059885829 64:-0.14137979 65:-0.087855804 66:-0.10605658 67:-0.080054976 68:0.2278871 69:0.04342365 70:-0.45806992 71:0.40717863 72:0.15385684 73:-0.18030444 74:0.11536476 75:-0.087614056 76:-0.49810085 77:0.4082582 78:-0.067756573 79:-0.15570925 80:0.34983115 81:0.1004052 82:-0.35180561 83:0.091269808 84:-0.044838034 85:-0.77110366 86:0.67604088 87:0.18905808 88:-0.71404645 89:0.75422524 90:-0.14850681 
1.569566523092326 1:0.41088095 2:-0.19548588 3:0.10926231 4:0.25021951 5:-0.053578817 6:0.08992294 7:0.081452481 8:0.081452481 9:0.081452481 10:0.31121904 11:0.0298885 12:0.20514141 13:0.093525826 14:0.21087366 15:0.20308074 16:0.18922001 17:-0.1370461 18:-0.025294534 19:-0.044372569 20:-0.0093574724 21:-0.093306776 22:-0.047953892 23:0.27034238 24:0.1473281 25:-0.4451162 26:0.40952168 27:0.24834257 28:-0.12667589 29:0.16262435 30:-0.0013660239 31:-0.49801295 32:0.37228836 33:0.070363641 34:-0.12416525 35:0.39185988 36:0.201025 37:-0.28232522 38:0.12037414 39:-0.012032557 40:-0.76773975 41:0.67102945 42:0.25280632 43:-0.69182407 44:0.71641925 45:-0.058532431 46:0.4307743 47:-0.17344395 48:0.11127645 49:0.2591394 50:-0.041497498 51:0.091270966 52:0.081452481 53:0.081452481 54:0.081452481 55:0.31018739 56:0.041862006 57:0.21131197 58:0.081848875 59:0.20922389 60:0.21001086 61:0.20809138 62:-0.12485704 63:-0.028771041 64:-0.035791622 65:-0.010755546 66:-0.10127681 67:-0.063304497 68:0.25817488 69:0.14906836 70:-0.4664548 71:0.39739795 72:0.220444 73:-0.12916234 74:0.15063115 75:-0.0057984669 76:-0.52603875 77:0.25651402 78:0.12136432 79:-0.14648949 80:0.37658603 81:0.20871574 82:-0.28712752 83:0.090589901 84:-0.019705142 85:-0.79594599 86:0.65066842 87:0.23426821 88:-0.71900681 89:0.64397764 90:-0.054631594 
5.553843938854309 1:0.46904551 2:-0.13921381 3:0.16953253 4:0.30275668 5:0.00052118858 6:0.14477187 7:0.13032581 8:0.13032581 9:0.13032581 10:0.35366 11:0.081666781 12:0.26631171 13:0.12644569 14:0.25036069 15:0.25818116 16:0.25185417 17:-0.080624999 18:0.023232063 19:0.029072873 20:0.0397528 21:-0.074238453 22:-0.0092566354 23:0.31249373 24:0.19430852 25:-0.41753342 26:0.4547655 27:0.20408176 28:-0.074952448 29:0.20776508 30:0.037449075 31:-0.48815657 32:0.28728121 33:0.13655246 34:-0.10076865 35:0.41905483 36:0.2500566 37:-0.22867177 38:0.14396653 39:-0.021639522 40:-0.73406165 41:0.72306601 42:0.23306778 43:-0.70379999 44:0.62595095 45:0.029658321 46:0.47036644 47:-0.13754889 48:0.18257789 49:0.30430079 50:0.0032745739 51:0.15077857 52:0.13032581 53:0.13032581 54:0.13032581 55:0.34892508 56:0.084371591 57:0.27496512 58:0.10435904 59:0.256442 60:0.28151759 61:0.25967507 62:-0.077822643 63:0.026593001 64:0.036932784 65:0.04165013 66:-0.078066255 67:-0.014870914 68:0.30967349 69:0.18995719 70:-0.42469614 71:0.44894069 72:0.18538759 73:-0.072424943 74:0.2050789 75:0.029789063 76:-0.48910916 77:0.24983077 78:0.13767042 79:-0.12790384 80:0.3991657 81:0.28758013 82:-0.22381967 83:0.14322716 84:-0.035444188 85:-0.74971912 86:0.69787087 87:0.12606475 88:-0.79743019 89:0.51940863 90:0.087703225 
6.540367923717073 1:0.47425007 2:-0.13085632 3:0.18986248 4:0.3087836 5:0.0079680264 6:0.15638959 7:0.13451611 8:0.13451611 9:0.13451611 10:0.35244911 11:0.089577962 12:0.28065273 13:0.1358497 14:0.27154965 15:0.31136449 16:0.26511808 17:-0.07364191 18:0.03212646 19:0.058021238 20:0.061786591 21:-0.092973634 22:-0.00909609 23:0.32548589 24:0.18260708 25:-0.41617749 26:0.47228535 27:0.17215269 28:-0.064222349 29:0.22154975 30:0.02111452 31:-0.48027678 32:0.27211385 33:0.12938468 34:-0.12942584 35:0.36168106 36:0.32831449 37:-0.20144139 38:0.16807945 39:-0.054148625 40:-0.7368669 41:0.72212195 42:0.08681484 43:-0.83607709 44:0.47914319 45:0.1093338 46:0.46611966 47:-0.14187718 48:0.18997439 49:0.30503102 50:0.0030267776 51:0.15692227 52:0.13451611 53:0.13451611 54:0.13451611 55:0.35186642 56:0.084730544 57:0.27997615 58:0.15309627 59:0.2761631 60:0.30904273 61:0.25819481 62:-0.078676403 63:0.033868342 64:0.054115108 65:0.058643539 66:-0.088027834 67:-0.0056086389 68:0.3190204 69:0.19195507 70:-0.3978903 71:0.49932361 72:0.161707 73:-0.066387828 74:0.21299222 75:0.032266792 76:-0.4822599 77:0.32000167 78:0.087747745 79:-0.12197181 80:0.34041483 81:0.32133224 82:-0.1941504 83:0.19346479 84:-0.073810657 85:-0.68626254 86:0.78255264 87:0.064878083 88:-0.85891576 89:0.49304189 90:0.12676503 
6.245026629796303 1:0.40221131 2:-0.21061059 3:0.087450064 4:0.24235317 5:-0.061947202 6:0.074099966 7:0.073417436 8:0.073417436 9:0.073417436 10:0.30499185 11:0.01682139 12:0.19185228 13:0.11009646 14:0.2211615 15:0.21211783 16:0.17971438 17:-0.14071438 18:-0.043651355 19:-0.047237509 20:-0.00048980272 21:-0.10476088 22:-0.053457616 23:0.26167154 24:0.15180123 25:-0.43332337 26:0.46492336 27:0.19504224 28:-0.13757745 29:0.15589132 30:-0.0063324327 31:-0.52506598 32:0.34272297 33:0.04292483 34:-0.14447313 35:0.34278214 36:0.2356284 37:-0.29054117 38:0.12534854 39:-0.035025609 40:-0.73900401 41:0.74718546 42:0.18012611 43:-0.90311741 44:0.50336856 45:0.11078278 46:0.39585635 47:-0.21742404 48:0.08449057 49:0.23886717 50:-0.066196631 51:0.072135033 52:0.073417436 53:0.073417436 54:0.073417436 55:0.30698956 56:0.013484348 57:0.18621947 58:0.10681181 59:0.21326857 60:0.19907965 61:0.17074402 62:-0.14587695 63:-0.041949386 64:-0.064213556 65:-0.022154181 66:-0.07982924 67:-0.047646991 68:0.2649485 69:0.14903165 70:-0.42914535 71:0.4512445 72:0.23407434 73:-0.13641771 74:0.16111591 75:0.00036702419 76:-0.52414207 77:0.33052761 78:0.092284635 79:-0.13454176 80:0.35985933 81:0.21931121 82:-0.30475256 83:0.10861794 84:-0.0080957665 85:-0.73740678 86:0.73108207 87:0.23489142 88:-0.87806764 89:0.54175662 90:0.15105401 
6.335247586750302 1:0.4674638 2:-0.13441382 3:0.14672596 4:0.29332134 5:-0.0048031894 6:0.12276698 7:0.11051668 8:0.11051668 9:0.11051668 10:0.33748888 11:0.078280682 12:0.24580163 13:0.10391932 14:0.23826467 15:0.24504019 16:0.24915379 17:-0.087887061 18:-0.00026767102 19:-0.049909869 20:-0.0028737274 21:0.037327132 22:-0.044429633 23:0.2782409 24:0.17586823 25:-0.45075932 26:0.34998005 27:0.30679006 28:-0.10014576 29:0.17343303 30:0.020664479 31:-0.4777823 32:0.34540393 33:0.14433931 34:-0.14102722 35:0.38010438 36:0.25074766 37:-0.31655766 38:0.011580567 39:0.19916132 40:-0.84137502 41:0.41921316 42:0.43244633 43:-0.82325926 44:0.57772384 45:0.14154914 46:0.48840993 47:-0.099898706 48:0.14814004 49:0.30353551 50:0.013474133 51:0.12445408 52:0.11051668 53:0.11051668 54:0.11051668 55:0.33344599 56:0.091670277 57:0.25467782 58:0.085404208 59:0.2281415 60:0.25397635 61:0.27362415 62:-0.064721534 63:-0.005769674 64:-0.024990448 65:-0.00032969954 66:0.032773284 67:-0.063060687 68:0.25838402 69:0.18121824 70:-0.47284561 71:0.30142731 72:0.31407024 73:-0.10194267 74:0.15673613 75:0.011939207 76:-0.48507764 77:0.30451671 78:0.14922448 79:-0.16950027 80:0.35124286 81:0.25844669 82:-0.29131643 83:0.011916774 84:0.19793267 85:-0.86686265 86:0.34284836 87:0.44178368 88:-0.85070827 89:0.50362818 90:0.14734603 
4.701791835249568 1:0.5594346 2:-0.0080173449 3:0.19367917 4:0.36428046 5:0.085445667 6:0.1737249 7:0.16217711 8:0.16217711 9:0.16217711 10:0.38269188 11:0.15459956 12:0.31101635 13:0.1226058 14:0.26639635 15:0.31360077 16:0.34586908 17:0.01629184 18:0.036434446 19:0.058505998 20:0.054861751 21:0.065026978 22:-0.027829445 23:0.28434795 24:0.24084073 25:-0.43688304 26:0.28885668 27:0.38269198 28:-0.052024291 29:0.19346875 30:0.060419975 31:-0.44309787 32:0.3033949 33:0.21027556 34:-0.14144713 35:0.36829433 36:0.32015761 37:-0.22316956 38:0.088518891 39:0.19074261 40:-0.83020407 41:0.29319543 42:0.5190844 43:-0.82594402 44:0.46695566 45:0.2136466 46:0.5743831 47:0.029424133 48:0.19031388 49:0.3705813 50:0.10460776 51:0.17321049 52:0.16217711 53:0.16217711 54:0.16217711 55:0.37882556 56:0.16196887 57:0.31678196 58:0.1091191 59:0.24796633 60:0.32031621 61:0.36233708 62:0.047246715 63:0.029640012 64:0.069590805 65:0.066498527 66:0.034357136 67:-0.040872331 68:0.25700674 69:0.24440465 70:-0.46235789 71:0.28597387 72:0.33921874 73:-0.051582184 74:0.18248515 75:0.057881876 76:-0.45747097 77:0.23216138 78:0.19498278 79:-0.16275868 80:0.32664362 81:0.32681611 82:-0.22782438 83:0.098880234 84:0.11730942 85:-0.86296233 86:0.28728714 87:0.45257317 88:-0.85474515 89:0.31104635 90:0.257589 
8 1:0.65300393 2:0.12836373 3:0.2684054 4:0.44474285 5:0.18962846 6:0.24869431 7:0.23326204 8:0.23326204 9:0.23326204 10:0.44408966 11:0.23844133 12:0.39566041 13:0.16859634 14:0.30365044 15:0.3968306 16:0.44539584 17:0.1408147 18:0.10172928 19:0.15385154 20:0.15201371 21:0.063737 22:0.021359521 23:0.30840363 24:0.31269093 25:-0.38944957 26:0.26999057 27:0.44309825 28:0.022202178 29:0.24538874 30:0.12296755 31:-0.38810626 32:0.21077226 33:0.24895953 34:-0.10808849 35:0.36351375 36:0.400246 37:-0.15338543 38:0.15400247 39:0.11145426 40:-0.78445867 41:0.23305529 42:0.56848889 43:-0.78374623 44:0.18121856 45:0.36140974 46:0.65549491 47:0.13610041 48:0.27646828 49:0.44506184 50:0.1931595 51:0.25318306 52:0.23326204 53:0.23326204 54:0.23326204 55:0.43990973 56:0.23935412 57:0.40095849 58:0.16270749 59:0.29683763 60:0.39877598 61:0.45021395 62:0.14696488 63:0.10540762 64:0.15331101 65:0.16879558 66:0.041003969 67:0.018140232 68:0.30315837 69:0.30865026 70:-0.39814903 71:0.26757136 72:0.42110466 73:0.024785242 74:0.24357059 75:0.11803181 76:-0.37547801 77:0.15482708 78:0.2527297 79:-0.11536196 80:0.35001118 81:0.39845138 82:-0.15703019 83:0.14685063 84:0.067802343 85:-0.79842698 86:0.23335307 87:0.52923389 88:-0.76062924 89:0.070405013 90:0.38006396 
1.134084527018568 1:0.70033481 2:0.18472136 3:0.31313727 4:0.48430146 5:0.23500521 6:0.29141258 7:0.27187795 8:0.27187795 9:0.27187795 10:0.47733786 11:0.2742182 12:0.44114906 13:0.19847182 14:0.32280242 15:0.43629878 16:0.49126425 17:0.19579345 18:0.141677 19:0.20541932 20:0.23135618 21:0.061771802 22:0.055149364 23:0.3329959 24:0.34493023 25:-0.36715801 26:0.29842457 27:0.43404303 28:0.06376015 29:0.28450341 30:0.15975757 31:-0.32363944 32:0.13836045 33:0.28521005 34:-0.080890956 35:0.36855316 36:0.432639 37:-0.10532489 38:0.19544983 39:0.077753176 40:-0.78039432 41:0.34807854 42:0.4442786 43:-0.69615642 44:-0.0021041347 45:0.40570137 46:0.69679499 47:0.16574343 48:0.31067925 49:0.48254233 50:0.22559479 51:0.29022079 52:0.27187795 53:0.27187795 54:0.27187795 55:0.47825895 56:0.26541393 57:0.43988472 58:0.20087038 59:0.32139048 60:0.43137503 61:0.48682571 62:0.18577565 63:0.14055685 64:0.21006386 65:0.23812103 66:0.05076921 67:0.058481044 68:0.34357008 69:0.349038 70:-0.37089971 71:0.34093326 72:0.4047561 73:0.063946904 74:0.29275091 75:0.15803132 76:-0.33241711 77:0.14440944 78:0.24737867 79:-0.076997739 80:0.37507358 81:0.42378274 82:-0.099934869 83:0.21674312 84:0.075261468 85:-0.78561422 86:0.36498063 87:0.43248212 88:-0.71354055 89:0.0017882205 90:0.33325661 
0.1701351441730796 1:0.53144042 2:-0.017587101 3:0.08857761 4:0.33768415 5:0.05868414 6:0.11251692 7:0.13791259 8:0.13791259 9:0.13791259 10:0.37503426 11:0.10726341 12:0.25477248 13:0.20663237 14:0.28078575 15:0.35925355 16:0.30033271 17:0.010104375 18:-0.029738608 19:0.01805077 20:0.044344744 21:-0.014981533 22:-0.037776239 23:0.24846471 24:0.25502966 25:-0.45284006 26:0.29722404 27:0.3682734 28:-0.085097012 29:0.19523904 30:0.068171256 31:-0.49659596 32:0.32523899 33:0.10349792 34:-0.069627393 35:0.27795556 36:0.39912358 37:-0.27760282 38:0.015766074 39:0.077287187 40:-0.84810613 41:0.31024507 42:0.49838936 43:-0.89649029 44:0.43730203 45:0.13284685 46:0.52802519 47:-0.02132003 48:0.071056534 49:0.33572055 50:0.057006767 51:0.10363307 52:0.13791259 53:0.13791259 54:0.13791259 55:0.37688395 56:0.096639893 57:0.24762568 58:0.20402482 59:0.26074146 60:0.36310919 61:0.29455675 62:0.017372733 63:-0.04035961 64:0.015709659 65:0.036829775 66:-0.0037719525 67:-0.033353999 68:0.24437252 69:0.26503496 70:-0.44632412 71:0.35492782 72:0.33368182 73:-0.086436766 74:0.19326441 75:0.079348263 76:-0.37487849 77:0.11235314 78:0.27953153 79:-0.072216419 80:0.27926222 81:0.40129338 82:-0.27503205 83:-0.011882508 84:0.095941121 85:-0.84761171 86:0.40787993 87:0.43114575 88:-0.65536847 89:0.066029223 90:0.45997994 
2.306787826442041 1:0.47382235 2:-0.08462959 3:0.020369478 4:0.28552984 5:0.0022631535 6:0.055266111 7:0.091929165 8:0.091929165 9:0.091929165 10:0.33159058 11:0.043649957 12:0.19727828 13:0.17523798 14:0.22099652 15:0.33455337 16:0.23946865 17:-0.039122315 18:-0.086745904 19:-0.032275161 20:0.0053401313 21:-0.062042742 22:-0.069106195 23:0.21838026 24:0.21429246 25:-0.47125651 26:0.36949166 27:0.26832828 28:-0.12825301 29:0.16554023 30:0.02796144 31:-0.43649921 32:0.18629131 33:0.3313314 34:-0.10416734 35:0.22671307 36:0.33450147 37:-0.32115433 38:-0.035160442 39:0.04663321 40:-0.8687035 41:0.46093246 42:0.35204738 43:-0.79960811 44:0.29462157 45:0.50381667 46:0.48068153 47:-0.065652252 48:0.013265489 49:0.28901058 50:0.011902477 51:0.05166511 52:0.091929165 53:0.091929165 54:0.091929165 55:0.3387181 56:0.058419609 57:0.18839706 58:0.18043489 59:0.2266006 60:0.33439686 61:0.25211291 62:-0.013448157 63:-0.10026927 64:-0.025603097 65:0.012187044 66:-0.070629215 67:-0.070994159 68:0.20629889 69:0.21562833 70:-0.47341481 71:0.36037805 72:0.2580148 73:-0.12693405 74:0.15987834 75:0.029173489 76:-0.51964177 77:0.22699156 78:0.19875007 79:-0.098495763 80:0.22317 81:0.32812462 82:-0.3114819 83:-0.030544039 84:0.044981301 85:-0.87180707 86:0.46003207 87:0.32648124 88:-0.90154251 89:0.32930217 90:0.32920723 
7.149288213406417 1:0.58748551 2:0.092886503 3:0.14396912 4:0.38085416 5:0.13025853 6:0.15562759 7:0.16805044 8:0.16805044 9:0.16805044 10:0.39544315 11:0.16283838 12:0.30642265 13:0.19383851 14:0.28660434 15:0.42802813 16:0.36626516 17:0.097678688 18:0.0048325186 19:0.075094262 20:0.11818126 21:-0.0099558428 22:-0.035346107 23:0.22684885 24:0.27770265 25:-0.45693336 26:0.3231999 27:0.29915086 28:-0.05415968 29:0.18483466 30:0.083243907 31:-0.47577391 32:0.2810101 33:0.10493136 34:-0.076859737 35:0.21781852 36:0.44196525 37:-0.22067876 38:0.067347631 39:0.073165334 40:-0.86294692 41:0.41239556 42:0.32220164 43:-0.88178566 44:0.36953668 45:0.13046286 46:0.58762922 47:0.095610596 48:0.13874705 49:0.38093263 50:0.13167454 51:0.15305109 52:0.16805044 53:0.16805044 54:0.16805044 55:0.3970547 56:0.16387626 57:0.30376985 58:0.21010149 59:0.35976478 60:0.46075218 61:0.36481181 62:0.099473557 63:0.0023332567 64:0.076833361 65:0.10878986 66:-0.0028169663 67:-0.034438087 68:0.22518743 69:0.28022922 70:-0.45569055 71:0.322117 72:0.30533591 73:-0.055228123 74:0.18366281 75:0.085868512 76:-0.47649664 77:0.28047834 78:0.11112909 79:-0.010545413 80:0.2747056 81:0.45887695 82:-0.21937062 83:0.057360241 84:0.078222147 85:-0.86125406 86:0.41251129 87:0.33144224 88:-0.8820512 89:0.37031374 90:0.13923491 
4.070600477790957 1:0.70970877 2:0.28716153 3:0.28957411 4:0.49943459 5:0.28498343 6:0.28671359 7:0.28298821 8:0.28298821 9:0.28298821 10:0.49669852 11:0.29298072 12:0.44142715 13:0.24800262 14:0.26535303 15:0.50616318 16:0.50217063 17:0.2769851 18:0.13199906 19:0.22018028 20:0.26334535 21:0.086269555 22:0.06477779 23:0.28614893 24:0.37901844 25:-0.36808031 26:0.29192316 27:0.38792474 28:0.068306815 29:0.27583598 30:0.17950623 31:-0.36455231 32:0.28160919 33:0.18841159 34:-0.0061631796 35:0.14161245 36:0.49445354 37:-0.066020548 38:0.14753263 39:0.12686936 40:-0.78429115 41:0.29732736 42:0.39659637 43:-0.78076034 44:0.28698741 45:0.19718827 
1.198088679776454 1:0.57745016 2:0.90514784 3:0.44219307 4:0.51972337 5:0.68938092 6:0.46424276 7:0.46959335 8:0.46959335 9:0.46959335 10:0.70034621 11:0.64894682 12:0.49559035 13:0.68127948 14:0.33595481 15:0.43841198 16:0.33909965 17:0.729815 18:0.43289628 19:0.21172911 20:0.48214548 21:0.35610655 22:0.51947505 23:0.22741809 24:0.49230019 25:0.37502873 26:-0.15888832 27:0.30974918 28:0.31945084 29:0.27219526 30:0.45758619 31:0.20999059 32:-0.079994077 33:0.19810734 34:0.58137282 35:0.057418276 36:0.3046926 37:0.24092197 38:0.22224696 39:0.22479843 40:0.19454279 41:-0.54697142 42:0.20603443 43:0.081921267 44:-0.49399981 45:0.2052554 46:0.60198558 47:0.89992522 48:0.43535971 49:0.53220002 50:0.68612051 51:0.46121603 52:0.46959335 53:0.46959335 54:0.46959335 55:0.7085489 56:0.63669558 57:0.50168114 58:0.66403326 59:0.31449162 60:0.43993794 61:0.35585166 62:0.7355442 63:0.42075051 64:0.16299231 65:0.52041987 66:0.38062057 67:0.50473253 68:0.22567111 69:0.50039912 70:0.31020981 71:-0.14564921 72:0.33394822 73:0.3092394 74:0.280461 75:0.45554121 76:0.14837796 77:-0.07543539 78:0.23022032 79:0.57109174 80:0.044550219 81:0.28218141 82:0.19287949 83:0.25828101 84:0.2684348 85:0.10733938 86:-0.5065334 87:0.24895697 88:-0.018451072 89:-0.47421482 90:0.26364441 
3.801622194493131 1:0.67114559 2:0.90566625 3:0.45705668 4:0.57794326 5:0.70283225 6:0.4840411 7:0.49377276 8:0.49377276 9:0.49377276 10:0.74512386 11:0.63813327 12:0.54011804 13:0.67909628 14:0.32808881 15:0.49656233 16:0.41076308 17:0.76752993 18:0.42796379 19:0.22677198 20:0.54245598 21:0.36020645 22:0.50222117 23:0.24886914 24:0.53457234 25:0.28845275 26:-0.11335177 27:0.37197455 28:0.31698437 29:0.32055645 30:0.47243825 31:0.1788009 32:-0.020669979 33:0.21228277 34:0.52729453 35:0.078771142 36:0.35335519 37:0.13888084 38:0.27800632 39:0.26659015 40:0.065708476 41:-0.45426427 42:0.29694096 43:-0.041341943 44:-0.38668852 45:0.2874607 46:0.69558785 47:0.89401023 48:0.45722705 49:0.59047521 50:0.69708009 51:0.48402412 52:0.49377276 53:0.49377276 54:0.49377276 55:0.75114628 56:0.62371793 57:0.54786997 58:0.66897286 59:0.33050192 60:0.49535272 61:0.42980369 62:0.77044114 63:0.42017901 64:0.22952873 65:0.5657707 66:0.35029089 67:0.48606472 68:0.24983072 69:0.53888545 70:0.25009052 71:-0.096442529 72:0.37222249 73:0.30807457 74:0.33109949 75:0.46815826 76:0.19214396 77:0.013487833 78:0.17360876 79:0.50839486 80:0.081361829 81:0.36345728 82:0.15966582 83:0.30324807 84:0.23644225 85:0.022497084 86:-0.42717544 87:0.29109266 88:-0.051887475 89:-0.34101773 90:0.226535 
2.312613142702958 1:0.60948001 2:0.85230866 3:0.40563013 4:0.52060871 5:0.64819919 6:0.42942998 7:0.43847661 8:0.43847661 9:0.43847661 10:0.68860494 11:0.58477479 12:0.48428985 13:0.62380002 14:0.28455939 15:0.43813755 16:0.35261332 17:0.71162342 18:0.37456898 19:0.15802781 20:0.50967073 21:0.30990556 22:0.44940163 23:0.19362247 24:0.47791215 25:0.22305199 26:-0.16902846 27:0.33419239 28:0.26328879 29:0.26388581 30:0.41713534 31:0.15888672 32:-0.052499732 33:0.11457558 34:0.4754931 35:0.019334137 36:0.32468673 37:0.11391789 38:0.24554629 39:0.18879224 40:0.026766112 41:-0.50479881 42:0.2484869 43:-0.034518598 44:-0.43828775 45:0.11195915 46:0.67921696 47:0.88152882 48:0.36962144 49:0.5418187 50:0.6371377 51:0.44043956 52:0.43847661 53:0.43847661 54:0.43847661 55:0.68825826 56:0.56009708 57:0.52784968 58:0.62597734 59:0.30059372 60:0.50316812 61:0.39537913 62:0.71417833 63:0.35303043 64:0.18225188 65:0.53214518 66:0.3179248 67:0.41608949 68:0.1972264 69:0.48483592 70:0.18659859 71:-0.17507788 72:0.51547721 73:0.2541791 74:0.28240602 75:0.38819238 76:0.1864347 77:-0.1162463 78:0.21452434 79:0.50794422 80:0.0042034719 81:0.44897519 82:0.098766575 83:0.25549694 84:0.26737391 85:0.036867769 86:-0.44686456 87:0.51285714 88:0.074055255 89:-0.4869993 90:0.15960844 
1.798380908698925 1:0.75015573 2:0.84777868 3:0.45595014 4:0.61256943 5:0.66979114 6:0.47957563 7:0.48436564 8:0.48436564 9:0.48436564 10:0.75295073 11:0.57482471 12:0.56055922 13:0.63061174 14:0.29986861 15:0.48182087 16:0.46471502 17:0.76494919 18:0.41297157 19:0.26537676 20:0.61495538 21:0.37792586 22:0.42897792 23:0.24512284 24:0.54332755 25:0.19384448 26:-0.086232191 27:0.34766403 28:0.27410908 29:0.34960736 30:0.45175217 31:0.23030421 32:0.075152713 33:0.096423241 34:0.44051013 35:0.10662891 36:0.3076614 37:0.37578418 38:0.3629633 39:0.27621231 40:-0.050714755 41:-0.38303888 42:0.27777543 43:0.19270383 44:-0.30673235 45:-0.25608435 46:0.7906524 47:0.81543137 48:0.4555023 49:0.63252006 50:0.65411595 51:0.47867578 52:0.48436564 53:0.48436564 54:0.48436564 55:0.75831699 56:0.5473177 57:0.56804783 58:0.61224317 59:0.28629604 60:0.46989968 61:0.50672302 62:0.76091386 63:0.38930467 64:0.28731084 65:0.63870233 66:0.35174832 67:0.40594481 68:0.25541448 69:0.53959661 70:0.1536802 71:-0.047887364 72:0.31872224 73:0.25943653 74:0.3742817 75:0.45308055 76:0.2008419 77:0.1133153 78:0.089867518 79:0.40482275 80:0.11987567 81:0.28771295 82:0.39793708 83:0.38268423 84:0.25793351 85:-0.14153283 86:-0.32193057 87:0.25279198 88:0.15135564 89:-0.19884541 90:-0.23826043 
0.3830759508666862 1:0.79804313 2:0.80282294 3:0.45618997 4:0.63281614 5:0.64535689 6:0.47631874 7:0.47979529 8:0.47979529 9:0.47979529 10:0.75453658 11:0.53476218 12:0.56708312 13:0.59043035 14:0.27334401 15:0.48060317 16:0.51109571 17:0.75595159 18:0.38555436 19:0.27194727 20:0.59749961 21:0.31680552 22:0.39422312 23:0.25295016 24:0.53356737 25:0.18402529 26:-0.047804962 27:0.27485182 28:0.25932493 29:0.37551779 30:0.43297642 31:0.21304859 32:0.11309118 33:0.067049567 34:0.39373508 35:0.092661849 36:0.30028277 37:0.36336984 38:0.33232772 39:0.22542108 40:-0.14363202 41:-0.32462327 42:0.2593289 43:0.1058914 44:-0.22710972 45:-0.18155773 46:0.76646162 47:0.8274142 48:0.45562961 49:0.61814121 50:0.65728492 51:0.47740654 52:0.47979529 53:0.47979529 54:0.47979529 55:0.74702343 56:0.55809207 57:0.57138314 58:0.61859291 59:0.26256478 60:0.55817242 61:0.48925899 62:0.75647777 63:0.38342993 64:0.26320969 65:0.55193398 66:0.36908942 67:0.39795737 68:0.24659001 69:0.57709856 70:0.22014333 71:-0.11768068 72:0.39997441 73:0.25453294 74:0.3554848 75:0.47514528 76:0.18785385 77:0.022691572 78:0.19275742 79:0.42611582 80:0.04863988 81:0.41282487 82:0.31035387 83:0.26720278 84:0.30800529 85:-0.12306442 86:-0.39528778 87:0.49971499 88:0.063501698 89:-0.36550327 90:0.045634685 
0.4843504998234294 1:0.76429193 2:0.84636545 3:0.44813528 4:0.62298015 5:0.67231074 6:0.47806923 7:0.49057504 8:0.49057504 9:0.49057504 10:0.75858754 11:0.57976624 12:0.56892463 13:0.63229212 14:0.2895965 15:0.56585765 16:0.48737258 17:0.76485684 18:0.3872132 19:0.28631269 20:0.55360336 21:0.34279725 22:0.43332129 23:0.25755134 24:0.55343297 25:0.26053138 26:-0.15567706 27:0.27917838 28:0.28301718 29:0.36012668 30:0.45273062 31:0.099694068 32:0.0036901465 33:0.25324154 34:0.4513286 35:0.052179551 36:0.44719664 37:0.23775385 38:0.27039221 39:0.2760188 40:-0.084060875 41:-0.37500567 42:0.51632634 43:-0.054982443 44:-0.38691274 45:0.14616158 46:0.77222951 47:0.84037614 48:0.44048857 49:0.62726565 50:0.66916963 51:0.4738558 52:0.49057504 53:0.49057504 54:0.49057504 55:0.76037284 56:0.57612619 57:0.56820892 58:0.61610806 59:0.25721259 60:0.53534538 61:0.49415921 62:0.76221243 63:0.3795025 64:0.29033518 65:0.55356857 66:0.33534977 67:0.42762291 68:0.26043694 69:0.5595641 70:0.29328103 71:-0.069415928 72:0.21606064 73:0.28014507 74:0.36352619 75:0.45502402 76:0.026830145 77:0.024966192 78:0.30197983 79:0.43635518 80:-0.0024948751 81:0.43737449 82:0.18783418 83:0.2842238 84:0.27232103 85:-0.018527532 86:-0.33004024 87:0.36519406 88:-0.14214699 89:-0.36765853 90:0.234088 
1.304903530697466 1:0.83389434 2:0.85542661 3:0.47615573 4:0.67618343 5:0.69536987 6:0.5093689 7:0.5272112 8:0.5272112 9:0.5272112 10:0.79819311 11:0.59838584 12:0.61403278 13:0.63549833 14:0.28331404 15:0.55381981 16:0.55417379 17:0.79235366 18:0.404706 19:0.34175191 20:0.59208717 21:0.3623267 22:0.4464851 23:0.30480412 24:0.60359689 25:0.27542148 26:0.006404706 27:0.30390779 28:0.2991032 29:0.41490773 30:0.49879761 31:0.1425422 32:0.12481353 33:0.19074653 34:0.45119031 35:0.029089434 36:0.44013633 37:0.19630598 38:0.34145299 39:0.30706441 40:-0.0015242436 41:-0.30707371 42:0.3219283 43:-0.14961456 44:-0.19488529 45:0.21608288 46:0.83496557 47:0.85321925 48:0.48021016 49:0.67753247 50:0.69451862 51:0.51060541 52:0.5272112 53:0.5272112 54:0.5272112 55:0.79723896 56:0.59764686 57:0.61821338 58:0.64776812 59:0.30638701 60:0.57303198 61:0.55782596 62:0.79139197 63:0.40299677 64:0.34729221 65:0.58840575 66:0.36429416 67:0.44492346 68:0.3048476 69:0.6049748 70:0.25527882 71:0.0034511627 72:0.32759161 73:0.29602911 74:0.42318881 75:0.50616693 76:0.11878666 77:0.12614472 78:0.21649138 79:0.47060735 80:0.065017766 81:0.43812219 82:0.18335668 83:0.3476542 84:0.3174991 85:0.070288301 86:-0.34315558 87:0.20684122 88:-0.074006012 89:-0.23773062 90:0.080000163 
1.515337612820904 1:0.82685314 2:0.83908781 3:0.47261402 4:0.66775853 5:0.68177494 6:0.50093595 7:0.51578002 8:0.51578002 9:0.51578002 10:0.78542282 11:0.58377394 12:0.60972771 13:0.63741506 14:0.32275095 15:0.57511816 16:0.55009494 17:0.77977525 18:0.39214403 19:0.34498002 20:0.57575495 21:0.34649359 22:0.42958158 23:0.29499739 24:0.59144496 25:0.25487769 26:-0.0051605793 27:0.30374405 28:0.29037037 29:0.41329283 30:0.48486357 31:0.10787226 32:0.10988341 33:0.20522202 34:0.4746158 35:0.088460471 36:0.41981135 37:0.23688335 38:0.37134659 39:0.2934745 40:0.10624828 41:-0.34701398 42:0.11528966 43:-0.026809202 44:-0.24045293 45:-0.012331348 46:0.79839217 47:0.8627017 48:0.47588998 49:0.65393913 50:0.69342988 51:0.50187368 52:0.51578002 53:0.51578002 54:0.51578002 55:0.78128561 56:0.60251295 57:0.60561652 58:0.64691333 59:0.33254884 60:0.60507308 61:0.5265934 62:0.78434615 63:0.3981307 64:0.32635798 65:0.54248327 66:0.35611039 67:0.45237075 68:0.28476348 69:0.59058371 70:0.2990571 71:-0.044904275 72:0.3252392 73:0.30286965 74:0.39149784 75:0.46879125 76:0.14919007 77:0.061042589 78:0.20281411 79:0.49518704 80:0.080181609 81:0.46892519 82:0.19246039 83:0.30840672 84:0.25687248 85:0.13544437 86:-0.40410118 87:0.14675033 88:-0.014664213 89:-0.2986839 90:0.024061687 
3.036015442557794 1:0.73824866 2:0.83916015 3:0.44128282 4:0.60342706 5:0.6605995 6:0.4648719 7:0.47530993 8:0.47530993 9:0.47530993 10:0.73827461 11:0.57279418 12:0.56135185 13:0.61481412 14:0.28500171 15:0.5698963 16:0.46857811 17:0.74840463 18:0.36839198 19:0.26845301 20:0.50385347 21:0.33995445 22:0.40724022 23:0.25490545 24:0.57847805 25:0.2730092 26:-0.098959886 27:0.33376656 28:0.26135795 29:0.34858311 30:0.46220321 31:0.12698172 32:-0.0056639667 33:0.21722654 34:0.46046775 35:0.015285145 36:0.47237028 37:0.13163091 38:0.2693535 39:0.22807855 40:0.098852126 41:-0.47053297 42:0.19799416 43:-0.047813444 44:-0.37860037 45:0.080955509 46:0.72251647 47:0.84868004 48:0.44323176 49:0.59712058 50:0.66478771 51:0.46375168 52:0.47530993 53:0.47530993 54:0.47530993 55:0.73612736 56:0.58120055 57:0.55844686 58:0.60188668 59:0.26686198 60:0.57851546 61:0.45811374 62:0.74837498 63:0.36905551 64:0.21491665 65:0.53302512 66:0.33336342 67:0.42865934 68:0.24063649 69:0.53806961 70:0.24882793 71:-0.14107069 72:0.38202507 73:0.27833861 74:0.33102701 75:0.43566671 76:0.097986808 77:-0.051783481 78:0.27917111 79:0.42646461 80:-0.010873012 81:0.54927742 82:0.04293771 83:0.30416822 84:0.26935143 85:0.021651972 86:-0.50590184 87:0.33177411 88:-0.12977541 89:-0.41755795 90:0.22879056 
8 1:0.61524479 2:0.8134445 3:0.38132877 4:0.5135862 5:0.61696132 6:0.40210351 7:0.41466795 8:0.41466795 9:0.41466795 10:0.66869596 11:0.54598538 12:0.48050443 13:0.56266466 14:0.19101289 15:0.51622592 16:0.35847686 17:0.68793819 18:0.32370162 19:0.15914889 20:0.47144445 21:0.30309861 22:0.40068063 23:0.17351096 24:0.47016162 25:0.21828836 26:-0.22911786 27:0.37969137 28:0.23081878 29:0.25123822 30:0.38430317 31:-0.007176296 32:-0.099917816 33:0.39274375 34:0.3952302 35:-0.10139287 36:0.53303335 37:0.0056340009 38:0.2210188 39:0.27578698 40:-0.0056815799 41:-0.59984872 42:0.35518874 43:-0.17656806 44:-0.46918884 45:0.43617933 46:0.59724076 47:0.8217677 48:0.37877277 49:0.50469621 50:0.62101516 51:0.40107692 52:0.41466795 53:0.41466795 54:0.41466795 55:0.66579396 56:0.55539414 57:0.47189868 58:0.58873988 59:0.19915451 60:0.50971631 61:0.34359815 62:0.68663755 63:0.33025535 64:0.16738292 65:0.45053818 66:0.31504825 67:0.41371468 68:0.17203677 69:0.4674172 70:0.18170452 71:-0.21137682 72:0.42795189 73:0.23556405 74:0.24460396 75:0.38909976 76:0.0028842701 77:-0.13991585 78:0.34952019 79:0.45464999 80:-0.10863484 81:0.48640456 82:0.016825909 83:0.19779322 84:0.29319218 85:-0.049377539 86:-0.57768814 87:0.40435065 88:-0.22823698 89:-0.50628987 90:0.32591555 
2.958599076025897 1:0.63755152 2:0.8383458 3:0.40039573 4:0.5374473 5:0.64166508 6:0.42558521 7:0.43912971 8:0.43912971 9:0.43912971 10:0.69434983 11:0.57051189 12:0.50054058 13:0.60867643 14:0.22227325 15:0.53608178 16:0.36644216 17:0.72049485 18:0.37086277 19:0.19265579 20:0.4832289 21:0.3478711 22:0.41843037 23:0.2028277 24:0.50816643 25:0.20602139 26:-0.19218438 27:0.46871261 28:0.24175751 29:0.28253801 30:0.42491794 31:0.028903418 32:-0.11330452 33:0.38538057 34:0.48381516 35:-0.08471999 36:0.48732407 37:0.036205207 38:0.23486004 39:0.31851592 40:-0.11534164 41:-0.38288078 42:0.2957881 43:-0.3096856 44:-0.31422161 45:0.20318693 46:0.64325367 47:0.83644054 48:0.39754116 49:0.53999199 50:0.64041057 51:0.42501952 52:0.43912971 53:0.43912971 54:0.43912971 55:0.69550475 56:0.56784513 57:0.501513 58:0.6395553 59:0.22160928 60:0.49568245 61:0.38447924 62:0.712976 63:0.34852605 64:0.2151751 65:0.47227088 66:0.32796132 67:0.41420657 68:0.20296199 69:0.51636724 70:0.18835315 71:-0.18623249 72:0.48349964 73:0.24740063 74:0.28142056 75:0.43368635 76:0.094015298 77:-0.132484 78:0.34031835 79:0.52251102 80:-0.07484153 81:0.40518308 82:0.054156109 83:0.22647017 84:0.30187916 85:-0.13046993 86:-0.3740129 87:0.25701705 88:-0.10641384 89:-0.5172159 90:0.33660644 
3.554263863867482 1:0.66582444 2:0.82206847 3:0.38207796 4:0.55158766 5:0.63337892 6:0.41632547 7:0.43918957 8:0.43918957 9:0.43918957 10:0.70050064 11:0.55725921 12:0.5018748 13:0.57044326 14:0.21547263 15:0.47498667 16:0.40267558 17:0.70949783 18:0.33077689 19:0.20937986 20:0.48682816 21:0.32181331 22:0.40929595 23:0.20282647 24:0.50945118 25:0.088197863 26:-0.11389305 27:0.50603569 28:0.2442876 29:0.28717351 30:0.41465497 31:0.053460118 32:-0.072538164 33:0.2207343 34:0.40424851 35:-0.048022254 36:0.34690407 37:0.01771343 38:0.26288984 39:0.30991295 40:-0.2385836 41:-0.33839578 42:0.68031848 43:-0.18001625 44:-0.4189632 45:0.11102273 46:0.68102324 47:0.80911629 48:0.37406323 49:0.56006731 50:0.62759582 51:0.41142745 52:0.43918957 53:0.43918957 54:0.43918957 55:0.70310643 56:0.54957581 57:0.50474683 58:0.55364304 59:0.25793947 60:0.50178758 61:0.41702835 62:0.70561567 63:0.31810903 64:0.20920028 65:0.49625157 66:0.31807142 67:0.39759442 68:0.20753997 69:0.51867495 70:0.057545406 71:-0.094061614 72:0.54098796 73:0.2293277 74:0.29999977 75:0.44915456 76:-0.0064269593 77:-0.045699376 78:0.28131767 79:0.3631249 80:0.0064043146 81:0.41387109 82:0.0022962979 83:0.28598704 84:0.3158004 85:-0.27080313 86:-0.26935408 87:0.76184174 88:-0.28194009 89:-0.37390277 90:0.22207306 
3.323502278948491 1:0.71327093 2:0.77694297 3:0.36230099 4:0.57554391 5:0.61040814 6:0.40299868 7:0.43616875 8:0.43616875 9:0.43616875 10:0.70514192 11:0.52714238 12:0.51015466 13:0.53213819 14:0.263444 15:0.50549543 16:0.44594666 17:0.69367454 18:0.29584271 19:0.2182019 20:0.50617396 21:0.29709737 22:0.36209984 23:0.21713333 24:0.5487115 25:0.032530949 26:-0.075157951 27:0.46331645 28:0.21566668 29:0.31387265 30:0.43686525 31:-0.072363591 32:0.0050060912 33:0.27848426 34:0.31475219 35:0.02831566 36:0.45261252 37:-0.018925529 38:0.32559613 39:0.32835679 40:-0.28925919 41:-0.21918759 42:0.71489762 43:-0.40867628 44:-0.26274337 45:0.31038468 46:0.73099147 47:0.76197896 48:0.36166468 49:0.58420058 50:0.60303755 51:0.40276661 52:0.43616875 53:0.43616875 54:0.43616875 55:0.70704276 56:0.51664694 57:0.5155919 58:0.53097222 59:0.258483 60:0.51618926 61:0.4613592 62:0.68942877 63:0.28994133 64:0.22787727 65:0.50915305 66:0.28640356 67:0.3578447 68:0.22027536 69:0.53359516 70:0.076341329 71:-0.10893081 72:0.30341819 73:0.21631234 74:0.31521683 75:0.42792852 76:-0.091896919 77:0.013168745 78:0.2980141 79:0.31418119 80:0.020787354 81:0.47479381 82:-0.0052431684 83:0.32843829 84:0.28163457 85:-0.26659895 86:-0.25288671 87:0.57965742 88:-0.4471326 89:-0.22783484 90:0.35561241 
3.696690678906551 1:0.75020236 2:0.78595136 3:0.38644546 4:0.60447862 5:0.62562324 6:0.42474441 7:0.4575957 8:0.4575957 9:0.4575957 10:0.72837674 11:0.53914953 12:0.53641199 13:0.55503881 14:0.27972297 15:0.53987765 16:0.48058036 17:0.71209716 18:0.31307586 19:0.24869876 20:0.52979459 21:0.30835876 22:0.37794386 23:0.24264368 24:0.55104185 25:0.081976819 26:-0.08126687 27:0.44593803 28:0.24348073 29:0.33649063 30:0.42985184 31:-0.082218245 32:0.038843127 33:0.36216525 34:0.3479143 35:0.033853002 36:0.4960463 37:0.017072414 38:0.34719408 39:0.30273419 40:-0.26740604 41:-0.24517416 42:0.64410576 43:-0.40803769 44:-0.23578748 45:0.42255469 46:0.72273139 47:0.80879686 48:0.39716955 49:0.59113103 50:0.63708408 51:0.4288817 52:0.4575957 53:0.4575957 54:0.4575957 55:0.72587988 56:0.552827 57:0.52885622 58:0.57014605 59:0.27559963 60:0.52903163 61:0.45638211 62:0.72133978 63:0.3289069 64:0.23966798 65:0.5215025 66:0.31770212 67:0.39680679 68:0.23262184 69:0.54028395 70:0.13488384 71:-0.10732302 72:0.29901056 73:0.25131369 74:0.32359586 75:0.43233818 76:0.011279871 77:0.012059191 78:0.21122718 79:0.3806983 80:0.017436338 81:0.4765982 82:0.023158325 83:0.32148225 84:0.30583231 85:-0.10206834 86:-0.33565296 87:0.36604242 88:-0.294826 89:-0.28290668 90:0.29782254 
2.454609013809527 1:0.72880482 2:0.85097582 3:0.43483647 4:0.60829964 5:0.67176696 6:0.46040438 7:0.48465815 8:0.48465815 9:0.48465815 10:0.75002805 11:0.59003676 12:0.55239351 13:0.61173419 14:0.31341039 15:0.54368627 16:0.46657136 17:0.75349696 18:0.36841623 19:0.26320157 20:0.53411348 21:0.34086787 22:0.4392252 23:0.25549264 24:0.58451646 25:0.21386822 26:-0.091672056 27:0.40492515 28:0.28729866 29:0.34059629 30:0.47713314 31:0.0038601216 32:-0.0064930555 33:0.42465388 34:0.44097815 35:0.045226598 36:0.4788981 37:0.060841414 38:0.31129906 39:0.33542082 40:-0.048998394 41:-0.42767294 42:0.32612859 43:-0.28213631 44:-0.332199 45:0.44270225 46:0.71112518 47:0.86210198 48:0.43660948 49:0.59975857 50:0.67725065 51:0.46133529 52:0.48465815 53:0.48465815 54:0.48465815 55:0.74751992 56:0.59934161 57:0.54719776 58:0.61444645 59:0.320282 60:0.52966871 61:0.45199708 62:0.75515988 63:0.37547185 64:0.25837353 65:0.53353664 66:0.35501575 67:0.44911001 68:0.25011997 69:0.55421018 70:0.22931367 71:-0.061146068 72:0.34455365 73:0.28697084 74:0.34235204 75:0.48843896 76:0.067323585 77:0.025919462 78:0.25351752 79:0.44844599 80:0.055067451 81:0.44428222 82:0.071640586 83:0.30741118 84:0.32301538 85:0.017625234 86:-0.36301513 87:0.12749921 88:-0.14732507 89:-0.28016916 90:0.033428616 
0.5215626600294654 1:0.66025114 2:0.80347906 3:0.39090638 4:0.54824787 5:0.62066729 6:0.40956274 7:0.42981342 8:0.42981342 9:0.42981342 10:0.69256087 11:0.54062792 12:0.49921405 13:0.56999614 14:0.26715358 15:0.48610536 16:0.40393401 17:0.70070745 18:0.31991064 19:0.21376477 20:0.47586853 21:0.30233809 22:0.38730702 23:0.19684739 24:0.49723188 25:0.16725669 26:-0.1232989 27:0.26765519 28:0.23545243 29:0.28107046 30:0.40289594 31:-0.032666459 32:-0.068054957 33:0.47616117 34:0.41199797 35:0.00070053023 36:0.38995287 37:0.029743455 38:0.24695556 39:0.27475889 40:-0.044367341 41:-0.43071497 42:0.048067103 43:-0.29348126 44:-0.40142758 45:0.53125796 46:0.61163272 47:0.83106955 48:0.39690111 49:0.52443647 50:0.63359933 51:0.41069316 52:0.42981342 53:0.42981342 54:0.42981342 55:0.68392677 56:0.56635878 57:0.48332183 58:0.57595814 59:0.27401732 60:0.47258339 61:0.36494693 62:0.70084054 63:0.33806548 64:0.1921294 65:0.46193159 66:0.32898756 67:0.42358896 68:0.18875737 69:0.48918878 70:0.21643337 71:-0.16513356 72:0.30101454 73:0.23792557 74:0.27139666 75:0.4312221 76:0.014390454 77:-0.097312663 78:0.55653107 79:0.43141629 80:0.00056798607 81:0.37460188 82:0.024008557 83:0.22013803 84:0.31175292 85:-0.017324326 86:-0.51650814 87:0.20053106 88:-0.20146442 89:-0.45134103 90:0.67320699 
4.268778245962371 1:0.55754364 2:0.8133207 3:0.36846784 4:0.48203407 5:0.61055982 6:0.38237024 7:0.40097859 8:0.40097859 9:0.40097859 10:0.64847279 11:0.5518958 12:0.44663553 13:0.54564333 14:0.25684641 15:0.44116692 16:0.31559435 17:0.66922451 18:0.31810422 19:0.15086094 20:0.42452297 21:0.32125634 22:0.41405606 23:0.15821908 24:0.4559338 25:0.17570071 26:-0.17473026 27:0.26647752 28:0.22162897 29:0.22682895 30:0.42114159 31:-0.043660826 32:-0.12386592 33:0.52211884 34:0.40300712 35:-0.023154612 36:0.36038015 37:-0.010118915 38:0.17734661 39:0.31744277 40:-0.059785662 41:-0.53894281 42:0.25648129 43:-0.27787606 44:-0.4807315 45:0.59954078 46:0.54951429 47:0.81499977 48:0.37174548 49:0.47749744 50:0.61245092 51:0.38364428 52:0.40097859 53:0.40097859 54:0.40097859 55:0.6466138 56:0.55611388 57:0.44288046 58:0.54938516 59:0.25606313 60:0.42165456 61:0.30838082 62:0.66878932 63:0.32440835 64:0.14817195 65:0.41490405 66:0.3392326 67:0.41552782 68:0.15348581 69:0.47648269 70:0.20496576 71:-0.22132472 72:0.33957849 73:0.22852029 74:0.21562274 75:0.40606887 76:-0.034746138 77:-0.13066585 78:0.52152337 79:0.41008414 80:-0.023130851 81:0.33259372 82:-0.0080347748 83:0.16486316 84:0.32900995 85:-0.022090579 86:-0.59054936 87:0.32162726 88:-0.27924429 89:-0.46461496 90:0.64322491 
5.125519947767569 1:0.51757195 2:0.84887636 3:0.3999674 4:0.47054445 5:0.64119227 6:0.41316476 7:0.42128855 8:0.42128855 9:0.42128855 10:0.64882957 11:0.60262238 12:0.45007926 13:0.60419945 14:0.25348851 15:0.43055024 16:0.2922584 17:0.67976252 18:0.37625046 19:0.1805206 20:0.40744263 21:0.3567015 22:0.47485839 23:0.17913871 24:0.45070313 25:0.2756028 26:-0.20345027 27:0.3184737 28:0.26920525 29:0.22362948 30:0.40812161 31:0.10824319 32:-0.18000742 33:0.38641679 34:0.5187872 35:-0.043732298 36:0.30305586 37:0.071408901 38:0.13436309 39:0.33329719 40:0.11013278 41:-0.60349454 42:0.29039275 43:-0.046341882 44:-0.56819895 45:0.36527248 46:0.44443666 47:0.85942432 48:0.40717488 49:0.43420847 50:0.64643623 51:0.41942989 52:0.42128855 53:0.42128855 54:0.42128855 55:0.62012765 56:0.63584398 57:0.42874586 58:0.63872691 59:0.30902334 60:0.41998056 61:0.24828907 62:0.65702751 63:0.4101138 64:0.18513589 65:0.37104537 66:0.37473789 67:0.51224495 68:0.19022295 69:0.42835335 70:0.38757519 71:-0.22288407 72:0.29658806 73:0.30449238 74:0.20205753 75:0.41794292 76:0.17982187 77:-0.21104833 78:0.28617792 79:0.60059083 80:0.0097291633 81:0.29441334 82:0.12430631 83:0.084960934 84:0.33625247 85:0.29432739 86:-0.64340377 87:0.24489596 88:0.086575026 89:-0.63156822 90:0.23448565 
6.373455094847872 1:0.37502666 2:0.80751553 3:0.35921424 4:0.37231076 5:0.59460825 6:0.36861157 7:0.36907033 8:0.36907033 9:0.36907033 10:0.55992772 11:0.5919177 12:0.37101071 13:0.60010972 14:0.29949535 15:0.365395 16:0.18469478 17:0.59729865 18:0.36621227 19:0.1346925 20:0.30815627 21:0.33584775 22:0.47067629 23:0.14202901 24:0.3708702 25:0.37573055 26:-0.27384935 27:0.27818069 28:0.26177846 29:0.1561171 30:0.38286456 31:0.16651117 32:-0.27025794 33:0.27021247 34:0.57812499 35:-0.0091399754 36:0.2671945 37:0.086419424 38:0.018970151 39:0.30318818 40:0.30207225 41:-0.69905339 42:0.23368359 43:0.092853839 44:-0.69546214 45:0.22571521 46:0.35676904 47:0.81186122 48:0.36860919 49:0.36322007 50:0.59436703 51:0.37024786 52:0.36907033 53:0.36907033 54:0.36907033 55:0.55073428 56:0.59925957 57:0.36577723 58:0.58442765 59:0.288792 60:0.3727572 61:0.17570625 62:0.58947537 63:0.37471953 64:0.11991686 65:0.30042348 66:0.35568805 67:0.47248379 68:0.14631879 69:0.36556519 70:0.36764951 71:-0.29024097 72:0.3209846 73:0.27735679 74:0.14122768 75:0.37021839 76:0.17252252 77:-0.29533208 78:0.32563781 79:0.50692128 80:-0.017224657 81:0.30188992 82:0.06529023 83:0.011270162 84:0.334891 85:0.28557586 86:-0.71531748 87:0.29307418 88:0.090449051 89:-0.72040761 90:0.29772745 
0.5624736953863647 1:0.26054997 2:0.70243773 3:0.26082805 4:0.26054042 5:0.48618945 6:0.26082698 7:0.26077102 8:0.26077102 9:0.26077102 10:0.44820272 11:0.48638125 12:0.2606537 13:0.46494254 14:0.20002034 15:0.28716244 16:0.072877631 17:0.48599682 18:0.26099922 19:-0.0025677206 20:0.2015663 21:0.24019384 22:0.36379021 23:0.035457259 24:0.26062063 25:0.2027436 26:-0.38569983 27:0.27651441 28:0.15821089 29:0.035247408 30:0.26080993 31:0.18577754 32:-0.41141968 33:0.20345022 34:0.37554779 35:-0.10707205 36:0.23939227 37:-0.077221764 38:-0.08297258 39:0.21805506 40:0.091782945 41:-0.80397981 42:0.24595769 43:0.10047298 44:-0.83518587 45:0.16670978 46:0.14563246 47:0.68151874 48:0.31117201 49:0.2015539 50:0.47575794 51:0.28624614 52:0.26077102 53:0.26077102 54:0.26077102 55:0.37302055 56:0.5289825 57:0.23565018 58:0.41108271 59:0.27082606 60:0.31724403 61:0.048515627 62:0.47527084 63:0.3350807 64:0.017752564 65:0.18220606 66:0.34894299 67:0.41942057 68:0.10190641 69:0.24250167 70:0.35145628 71:-0.34278264 72:0.27705781 73:0.22373569 74:0.056008273 75:0.28877191 76:0.33702971 77:-0.35255353 78:0.42303054 79:0.37819245 80:-0.022275874 81:0.31136267 82:-0.012584242 83:-0.11095125 84:0.36175367 85:0.30621228 86:-0.77375882 87:0.29746455 88:0.45799151 89:-0.73917937 90:0.55200914 
4.936346223924917 1:0.30759912 2:0.8345388 3:0.47548327 4:0.36200614 5:0.63158373 6:0.44867977 7:0.41971079 8:0.41971079 9:0.41971079 10:0.53714026 11:0.684319 12:0.41184194 13:0.45917187 14:0.40015957 15:0.39769999 16:0.18687218 17:0.57884723 18:0.48551828 19:0.093917858 20:0.30252934 21:0.4404232 22:0.57443418 23:0.23705241 24:0.37033485 25:0.42075179 26:-0.18243022 27:0.30726394 28:0.38039701 29:0.17862423 30:0.41114892 31:0.33038139 32:-0.26791171 33:0.45196857 34:0.36670322 35:0.1265914 36:0.33740205 37:0.0011830629 38:0.026269692 39:0.3945252 40:0.28405519 41:-0.5887819 42:0.24095707 43:0.33514004 44:-0.69779017 45:0.51015976 46:0.30711566 47:0.84112482 48:0.4778776 49:0.36207288 50:0.635082 51:0.44958606 52:0.41971079 53:0.41971079 54:0.41971079 55:0.53936012 56:0.6871126 57:0.41653254 58:0.43336086 59:0.41522973 60:0.37329458 61:0.18478612 62:0.58305102 63:0.48264038 64:0.073397857 65:0.3165312 66:0.42276172 67:0.57558367 68:0.23316935 69:0.37152091 70:0.39915473 71:-0.17242318 72:0.28247296 73:0.37911382 74:0.17550853 75:0.40815071 76:0.24514219 77:-0.25436749 78:0.37951048 79:0.32396812 80:0.15067282 81:0.30209911 82:-0.037848447 83:0.050083741 84:0.3622969 85:0.23534748 86:-0.56436495 87:0.19442182 88:0.17272599 89:-0.68183687 90:0.39467068 
5.692109280744499 1:0.3539234 2:0.88895795 3:0.52519914 4:0.40882217 5:0.6824019 6:0.49644364 7:0.46645735 8:0.46645735 9:0.46645735 10:0.58641367 11:0.73432407 12:0.46386278 13:0.47475747 14:0.46644674 15:0.41094802 16:0.23123185 17:0.63048042 18:0.52902413 19:0.1175085 20:0.3653559 21:0.46736293 22:0.62249757 23:0.27928378 24:0.4184165 25:0.445402 26:-0.12507981 27:0.32520441 28:0.42568536 29:0.22174191 30:0.45452441 31:0.26685874 32:-0.19621402 33:0.39411395 34:0.36347393 35:0.20233462 36:0.34104613 37:0.0038879749 38:0.10028817 39:0.40527274 40:0.27816113 41:-0.51496855 42:0.23452856 43:0.15746592 44:-0.61594573 45:0.386236 
2.169371775943848 1:0.21251916 2:-0.42733031 3:0.00011400335 4:0.069186621 5:-0.2347518 6:-0.060205758 7:-0.047650553 8:-0.047650553 9:-0.047650553 10:0.16928991 11:-0.17895599 12:0.039865046 13:0.11621882 14:0.10232523 15:0.059030217 16:-0.030917336 17:-0.29054686 18:-0.16027557 19:-0.2079303 20:0.0067084495 21:-0.24896425 22:-0.10403385 23:0.17314561 24:0.025337224 25:-0.4116317 26:0.522277 27:0.10434757 28:-0.22494027 29:0.10575427 30:-0.095529908 31:-0.52066261 32:0.42731533 33:-0.087153488 34:-0.13189919 35:0.23192135 36:0.12183895 37:-0.36017089 38:-0.021421621 39:-0.075062125 40:-0.614868 41:0.87587406 42:0.082102092 43:-0.71304706 44:0.81456859 45:-0.12637103 46:0.25910097 47:-0.4167721 48:0.019455988 49:0.083871875 50:-0.22377184 51:-0.041846914 52:-0.047650553 53:-0.047650553 54:-0.047650553 55:0.17158193 56:-0.15473706 57:0.065427945 58:0.057161943 59:0.15937921 60:0.078714361 61:-0.0038390045 62:-0.29280728 63:-0.14912083 64:-0.22159196 65:-0.0017732216 66:-0.25271076 67:-0.13304127 68:0.16478006 69:0.0029654718 70:-0.46020691 71:0.5009536 72:0.061111363 73:-0.23129636 74:0.089579632 75:-0.1164196 76:-0.5689375 77:0.37775766 78:-0.11637199 79:-0.1912054 80:0.28792856 81:0.11884402 82:-0.34468492 83:-0.067972474 84:-0.099350659 85:-0.65772786 86:0.86380528 87:0.0031728834 88:-0.81231621 89:0.75746015 90:-0.18278667 
1.958244244233348 1:0.25141852 2:-0.41875054 3:-0.078943883 4:0.088402564 5:-0.23427306 6:-0.1096764 7:-0.07149225 8:-0.07149225 9:-0.07149225 10:0.18514691 11:-0.16401688 12:-0.004071531 13:0.03626903 14:0.13838421 15:0.032353753 16:-0.0083419318 17:-0.30453058 18:-0.21528236 19:-0.22547717 20:-0.068895811 21:-0.2636457 22:-0.18448295 23:0.12535191 24:0.017890977 25:-0.48918653 26:0.48251894 27:0.081904011 28:-0.2782903 29:0.057228769 30:-0.084507975 31:-0.62128786 32:0.25544258 33:0.04159791 34:-0.18352977 35:0.34095553 36:0.064072618 37:-0.36255524 38:-0.055212449 39:-0.061904263 40:-0.7330723 41:0.89969737 42:0.035148905 43:-0.8317396 44:0.59991554 45:-0.056721337 46:0.214551 47:-0.39898646 48:-0.056491387 49:0.054267855 50:-0.2228833 51:-0.11277514 52:-0.07149225 53:-0.07149225 54:-0.07149225 55:0.1584099 56:-0.16057646 57:-0.024019371 58:0.037201129 59:0.13350372 60:0.03168688 61:-0.049874407 62:-0.28519153 63:-0.20153102 64:-0.2580463 65:-0.023464123 66:-0.24928701 67:-0.14915392 68:0.10867588 69:0.010785025 70:-0.41147333 71:0.47406231 72:0.090014019 73:-0.26472235 74:0.068405016 75:-0.08237092 76:-0.59046837 77:0.29386197 78:0.085381384 79:-0.14745614 80:0.33626273 81:0.074399235 82:-0.41879716 83:-0.010592933 84:-0.0061513684 85:-0.62999185 86:0.92676835 87:0.040691218 88:-0.79996256 89:0.68888823 90:0.001845517 
1.669087456008096 1:0.099439651 2:-0.50154137 3:-0.12608724 4:-0.034527369 5:-0.32104849 6:-0.16291453 7:-0.1503214 8:-0.1503214 9:-0.1503214 10:0.081163596 11:-0.24812078 12:-0.087840382 13:-0.017169488 14:0.021337783 15:-0.084140156 16:-0.15021839 17:-0.39397618 18:-0.23798968 19:-0.35005073 20:-0.10229263 21:-0.31710293 22:-0.20956229 23:0.056054296 24:-0.10102928 25:-0.43947769 26:0.40611404 27:-0.043707227 28:-0.3179027 29:-0.016786845 30:-0.17572546 31:-0.64303284 32:0.28921243 33:-0.025893103 34:-0.1761849 35:0.25851683 36:-0.05674212 37:-0.49176605 38:-0.085351904 39:-0.10232268 40:-0.60403444 41:0.86938463 42:-0.13395234 43:-0.85449141 44:0.71959517 45:-0.10902778 46:0.07506098 47:-0.55730455 48:-0.18922131 49:-0.055177554 50:-0.34783914 51:-0.20145515 52:-0.1503214 53:-0.1503214 54:-0.1503214 55:0.086973297 56:-0.29302892 57:-0.14867204 58:0.015593178 59:-0.019597004 60:-0.099372186 61:-0.19732783 62:-0.40264806 63:-0.25423819 64:-0.33976048 65:-0.086880628 66:-0.29767971 67:-0.15917729 68:0.080467013 69:-0.067147762 70:-0.32971903 71:0.49219157 72:0.0058480895 73:-0.33175521 74:0.013925149 75:-0.13122941 76:-0.51580391 77:0.37748017 78:-0.0062527022 79:-0.021730657 80:0.26469211 81:-0.090555617 82:-0.47319529 83:-0.066503702 84:-0.029816972 85:-0.39520334 86:0.96456975 87:-0.035712236 88:-0.60809059 89:0.83980377 90:-0.027848525 
0.9904547986698686 1:-0.026965798 2:-0.6445465 3:-0.16796854 4:-0.12298621 5:-0.41418462 6:-0.20978248 7:-0.18834037 8:-0.18834037 9:-0.18834037 10:0.014175819 11:-0.37812853 12:-0.17149177 13:-0.011807822 14:-0.092444031 15:-0.17165816 16:-0.26354642 17:-0.44914249 18:-0.28116445 19:-0.36554641 20:-0.1274666 21:-0.38861784 22:-0.16967211 23:0.03825356 24:-0.13967256 25:-0.31129232 26:0.44751083 27:-0.12932686 28:-0.33287674 29:-0.0014945707 30:-0.19907726 31:-0.53422815 32:0.38904691 33:-0.1001573 34:-0.016894871 35:0.19075026 36:-0.16709218 37:-0.45019381 38:-0.12164074 39:-0.15002574 40:-0.61363176 41:0.80411618 42:0.039760253 43:-0.49229726 44:0.83153815 45:-0.21457864 46:-0.025500324 47:-0.61759666 48:-0.18585407 49:-0.11876101 50:-0.39743074 51:-0.22193146 52:-0.18834037 53:-0.18834037 54:-0.18834037 55:0.022669827 56:-0.34865869 57:-0.21290449 58:-0.010419669 59:-0.063996223 60:-0.20011128 61:-0.251498 62:-0.42986067 63:-0.25905288 64:-0.3741106 65:-0.10443408 66:-0.36747976 67:-0.17246853 68:0.089817695 69:-0.17588966 70:-0.30310149 71:0.49377949 72:-0.13339951 73:-0.34083262 74:0.039952263 75:-0.20422904 76:-0.51072423 77:0.38358475 78:-0.036260586 79:-0.064576651 80:0.21337185 81:-0.15087075 82:-0.45307396 83:-0.040552053 84:-0.11678821 85:-0.51861354 86:0.84493244 87:0.14922236 88:-0.51870897 89:0.78875335 90:-0.15206413 
2.382877669426232 1:-0.27039082 2:-0.77138574 3:-0.33367193 4:-0.28881726 5:-0.53533195 6:-0.37112275 7:-0.32095165 8:-0.32095165 9:-0.32095165 10:-0.12449744 11:-0.50673557 12:-0.38806497 13:-0.076179353 14:-0.2245361 15:-0.37490638 16:-0.45313625 17:-0.56392721 18:-0.35418155 19:-0.51674762 20:-0.22688088 21:-0.39732761 22:-0.29696274 23:-0.096805183 24:-0.27656719 25:-0.28745715 26:0.34754137 27:-0.15941484 28:-0.41183359 29:-0.10031812 30:-0.26322198 31:-0.40072721 32:0.4515603 33:-0.28671304 34:-0.017589264 35:0.041208591 36:-0.28494976 37:-0.53543157 38:0.066105253 39:-0.25724913 40:-0.35143461 41:0.70806032 42:-0.37486355 43:-0.37657501 44:0.85952088 45:-0.36224523 46:-0.32482197 47:-0.78909992 48:-0.35084972 49:-0.31147847 50:-0.55106458 51:-0.38432509 52:-0.32095165 53:-0.32095165 54:-0.32095165 55:-0.14957079 56:-0.53574027 57:-0.41576418 58:-0.075142703 59:-0.25979666 60:-0.39431215 61:-0.47338523 62:-0.56638783 63:-0.352887 64:-0.5108911 65:-0.23952497 66:-0.39814816 67:-0.29845671 68:-0.087813403 69:-0.26378472 70:-0.17953741 71:0.34874496 72:-0.15060858 73:-0.36239167 74:-0.093864369 75:-0.2513699 76:-0.37565714 77:0.33877301 78:-0.1291405 79:0.023322355 80:-0.0096391266 81:-0.29496155 82:-0.49683535 83:0.030471841 84:-0.21258711 85:-0.066307516 86:0.81033044 87:-0.24342762 88:-0.32894678 89:0.75494966 90:-0.097372616 
